1097047 320
de 0.063536 0.048707 -0.022319 0.075217 -0.034288 -0.018196 -0.093844 0.005665 -0.013227 0.002779 -0.001236 0.036577 0.024312 0.097335 -0.084676 0.068153 -0.041137 -0.063575 -0.024359 -0.008443 -0.024677 -0.045480 -0.029368 0.065505 0.006435 0.056453 -0.078579 0.148922 -0.003240 0.016970 0.048925 0.021605 -0.067347 0.095532 0.038690 0.009081 0.056029 0.079123 -0.084401 -0.016138 0.076568 0.008058 0.006192 -0.002385 0.027388 0.017403 -0.035138 0.000622 0.038306 0.003524 -0.114804 0.050090 -0.050716 0.061633 -0.058481 0.090599 -0.007801 0.024759 -0.018606 0.067129 -0.038425 0.054797 -0.039460 -0.029269 -0.046312 0.016050 0.057642 -0.000761 0.009728 -0.041431 0.109782 0.019976 0.051375 0.055559 -0.038717 -0.003803 -0.012291 -0.018652 0.061024 -0.042470 -0.045607 0.004131 0.072349 -0.028255 -0.009840 0.053759 0.053383 0.002021 0.061294 -0.104931 0.028897 -0.029006 -0.016030 -0.128272 0.022995 -0.037717 -0.081728 0.109294 0.013146 0.029796 -0.005131 0.010361 -0.018382 0.060753 -0.035197 -0.036483 -0.089358 0.000481 -0.032333 0.006795 -0.007704 0.035561 -0.061423 -0.036780 0.052201 0.021136 0.070268 -0.083024 -0.008923 0.015537 -0.001158 0.021922 0.026353 0.028962 0.028158 0.071411 -0.162747 0.055525 0.086315 0.063176 -0.071759 -0.018115 -0.017454 0.129091 -0.024772 -0.133082 0.018689 -0.093730 0.021262 0.009684 -0.037405 -0.007336 -0.012990 0.017915 -0.070734 -0.029337 0.026859 -0.096523 -0.078033 0.076781 -0.108289 0.014092 -0.086437 0.019990 -0.019620 0.010025 0.071966 -0.080767 -0.078972 0.065933 -0.008891 0.000206 -0.060768 -0.010624 0.028066 -0.010071 -0.048636 -0.033450 0.072282 0.138959 -0.049690 0.037466 -0.096169 0.004334 0.113767 0.047313 -0.050063 0.031068 -0.074528 -0.112905 -0.070468 0.058795 0.047444 0.037766 0.037197 0.082646 0.029470 0.029303 0.047238 0.009122 -0.099142 0.027780 -0.035593 0.003022 0.025936 -0.046162 0.072025 0.019509 -0.045564 0.098314 -0.076222 0.027991 -0.009549 -0.168386 0.054665 -0.039318 -0.028962 -0.007855 0.048534 0.009176 -0.052573 0.013476 -0.096226 -0.012245 -0.071472 0.055147 -0.059643 0.054281 0.071649 0.120468 0.078105 -0.006469 0.042696 0.025416 0.043943 0.070497 0.003784 0.043842 -0.039717 -0.001119 0.045955 0.096496 0.011899 0.042265 -0.089193 -0.003750 0.010182 -0.099762 0.055206 0.016003 0.000945 0.023030 0.054500 -0.060301 0.021787 0.018219 -0.003256 0.049503 -0.079141 -0.048738 -0.019240 -0.027605 -0.083011 -0.026850 -0.004094 -0.030451 -0.128755 -0.076325 0.106014 -0.094347 0.082922 0.002444 0.030418 -0.084480 -0.014030 0.037109 -0.057894 -0.097100 -0.003245 0.037186 -0.078753 0.082469 0.048584 0.018452 -0.014052 0.020772 -0.052864 -0.062790 0.067045 -0.020255 -0.080500 -0.067442 0.031671 0.024283 -0.031898 0.048859 0.032305 -0.131599 -0.029656 0.021058 -0.012111 0.100629 0.013897 0.069969 0.033563 -0.001165 -0.010291 0.020030 -0.056716 0.016948 -0.024845 -0.035457 0.019102 0.011630 0.039584 0.058371 -0.034931 -0.008858 -0.022972 -0.081118 -0.073820 -0.021601 0.004199 -0.062686 -0.004832 -0.066058 -0.063853 -0.030999 -0.040751 0.010700
van -0.021539 0.026077 0.030581 -0.036325 -0.009618 0.080560 -0.041865 -0.044487 -0.048801 0.049262 -0.043713 0.115225 -0.046506 0.049318 -0.050956 0.032245 -0.078826 0.090371 0.064132 0.037977 -0.037118 -0.074852 0.013407 0.056767 0.129763 -0.015483 -0.079254 0.065764 -0.019982 0.030984 0.006074 0.082018 -0.074796 0.036102 0.017746 0.093064 0.134394 0.065430 -0.071668 0.026918 -0.039642 0.005180 -0.093721 0.006005 -0.047808 0.128244 -0.045800 0.006619 0.009972 0.025671 -0.067442 0.060895 -0.026567 0.060636 0.013803 0.040849 -0.041530 -0.091637 0.044092 -0.032249 0.067013 0.013004 -0.159618 0.059372 0.011031 0.074609 0.066291 -0.004206 -0.011445 -0.044035 0.050821 0.055153 0.052778 0.040002 -0.031992 0.063749 -0.049831 0.030262 0.070424 -0.013299 -0.009388 0.038491 0.065423 0.022326 0.046607 0.066886 0.060703 -0.086139 0.010417 -0.022077 -0.008472 -0.063440 0.039232 0.031859 0.012691 -0.092860 -0.030223 -0.053636 0.061714 0.057318 0.032269 -0.023440 -0.095881 0.003959 -0.060576 0.048948 -0.023468 0.018772 0.041240 0.083610 0.029958 0.030759 -0.005561 -0.071042 0.017624 0.080130 0.033080 0.075882 -0.055914 0.034931 -0.034296 0.075813 -0.008858 0.116236 0.094632 0.018145 -0.046526 -0.045858 0.023452 0.032135 -0.001387 -0.047800 -0.054670 -0.057739 -0.060020 -0.005894 -0.024397 -0.025345 -0.015371 -0.046549 -0.000032 -0.048925 -0.020735 -0.000621 -0.100334 0.054045 0.043421 -0.146563 -0.084819 -0.000924 0.029173 0.034036 -0.107278 0.021082 -0.055940 0.083380 0.028421 0.035085 -0.038384 0.040180 -0.008876 0.035097 0.031027 -0.029686 -0.008242 0.011787 -0.108392 0.029003 0.113556 -0.004919 -0.060344 0.027011 0.024975 0.017423 0.074201 -0.048824 0.105519 -0.010245 0.009953 0.000115 -0.037494 0.024564 0.071937 0.032994 0.060764 0.004637 0.028149 -0.033890 0.184495 0.092073 -0.058062 -0.131394 0.043724 -0.022839 0.001360 -0.000110 0.012212 0.032420 -0.035710 0.014185 0.014223 -0.046308 -0.014680 -0.127383 -0.015028 -0.020015 0.089044 0.154995 0.007108 -0.016106 -0.050295 -0.088754 0.035557 -0.062845 -0.031140 0.027346 -0.099524 0.009712 0.090675 0.115968 0.041436 0.013106 0.057771 0.012859 0.093064 0.022604 0.058947 0.005004 0.052995 0.024211 0.046704 -0.003580 0.042199 -0.128656 -0.041847 0.044516 -0.086753 -0.076943 0.039801 0.042828 -0.030153 -0.028968 -0.042996 -0.036504 0.036635 -0.018894 -0.042650 -0.033116 0.058044 0.041274 -0.072351 0.000490 -0.018559 -0.060700 -0.078904 -0.096418 -0.028392 -0.054284 0.004027 0.021201 0.113507 0.066802 -0.029452 -0.015539 0.067678 -0.062635 -0.002652 -0.089103 -0.035858 0.065402 -0.059230 0.066536 0.009736 0.062724 -0.014379 -0.063719 -0.073853 -0.037539 0.060620 0.025985 0.033011 -0.072876 0.072023 -0.017771 -0.016327 0.020983 0.065953 0.007517 0.050394 -0.013918 -0.026396 0.026352 0.068012 0.000992 0.055886 0.045821 -0.028986 0.057306 0.018082 -0.030060 -0.039788 0.029696 0.088861 0.019882 0.077338 0.057037 -0.023672 0.043550 0.003196 0.027296 -0.020064 0.031021 -0.016590 -0.049540 0.074919 0.000251 -0.076898 0.028878 -0.051929 -0.015608
in -0.002255 -0.018885 0.014815 -0.008252 0.044236 -0.031984 -0.020404 -0.047073 -0.012314 0.112336 0.013583 0.049645 -0.070163 0.006602 0.051244 0.031481 -0.013852 -0.024929 0.139595 0.031214 -0.076413 -0.073990 0.028189 0.059978 -0.028919 -0.050367 -0.029661 0.111812 0.003072 -0.027991 0.078995 0.021127 0.023242 0.089872 -0.029455 0.021518 0.117705 0.067935 -0.085665 0.007034 0.032175 -0.063844 -0.064369 0.076011 -0.002278 0.081895 -0.032204 0.068123 0.001973 0.025594 0.092484 0.010940 -0.023011 0.046602 -0.015865 0.044928 -0.020648 0.052874 0.001264 -0.008905 -0.002647 0.084793 -0.132591 -0.028485 -0.026830 -0.029961 0.083326 -0.058096 0.056952 0.028220 0.023217 -0.022685 -0.033032 0.049119 -0.023425 0.072721 0.023098 -0.040965 0.132551 0.021241 -0.046607 -0.031950 0.062593 -0.082969 -0.044488 0.064338 -0.042208 0.042840 0.112032 -0.001403 0.005229 -0.037077 -0.055006 -0.090532 0.075988 0.085693 -0.032791 0.136835 0.042293 -0.068748 -0.025755 -0.032402 0.062253 0.007996 -0.039544 -0.009985 0.003761 -0.026238 -0.085646 -0.007782 -0.064369 0.037887 0.026973 -0.043311 0.033359 0.015717 0.018933 -0.024277 0.020690 -0.007977 0.002573 0.002703 0.007684 -0.067299 0.025385 -0.048723 -0.097220 0.000462 0.077797 0.065221 -0.036693 -0.029907 -0.010922 -0.017512 0.038818 -0.038590 0.003354 -0.021343 0.076972 0.010908 -0.013252 -0.038247 -0.001369 -0.031640 -0.036933 -0.129173 0.027540 -0.085714 0.054235 0.005540 -0.027330 0.092365 -0.009880 -0.034217 -0.006599 -0.020808 0.085936 0.086220 -0.018699 0.003719 0.033916 0.013815 0.040120 -0.010093 -0.037906 0.052313 -0.003820 -0.012071 0.000199 0.063477 0.020446 0.040897 -0.029416 -0.069521 -0.010203 0.015079 0.041372 0.015727 0.039163 -0.046158 -0.072663 0.057733 0.082783 -0.012196 -0.007325 -0.051605 0.068534 0.008453 0.090097 0.035736 0.044056 -0.030318 0.088221 -0.068596 -0.052906 0.037792 -0.041022 0.011025 0.003924 -0.015224 -0.117424 -0.040733 -0.011857 -0.103706 0.046648 -0.046934 0.081316 -0.060713 0.029144 -0.036886 0.011198 -0.119070 -0.110960 0.084964 -0.024119 0.047433 0.035152 0.091539 0.041963 0.024467 -0.031031 0.028236 -0.094149 0.048388 0.084556 -0.005234 0.065128 -0.094946 -0.011036 -0.030424 0.087747 -0.078273 0.099734 0.023382 -0.147223 0.049553 0.013574 -0.005800 -0.137243 0.020432 -0.078238 0.043401 0.058162 0.012543 -0.005740 -0.081520 0.001262 -0.016294 -0.033809 0.047098 -0.116388 0.067719 -0.095719 0.017385 -0.087304 -0.048934 0.022056 0.031562 0.030319 0.015628 0.012765 0.012376 0.003680 0.052505 0.055062 -0.068497 -0.052624 -0.139551 -0.093980 0.031254 0.039444 -0.067513 -0.015037 0.028405 0.064129 -0.074034 -0.038098 -0.027642 0.047242 0.077795 0.024398 0.018514 0.059165 0.096039 -0.031904 0.066777 -0.103262 -0.087907 0.003714 -0.026682 0.015300 0.050304 -0.045425 0.111525 -0.027386 0.069117 0.036103 -0.004585 0.076436 -0.075142 -0.060723 -0.003048 0.012740 0.024226 0.062357 0.112608 -0.047995 0.029124 -0.022691 -0.040854 -0.065992 0.050081 0.021705 0.032776 -0.006345 -0.050952 -0.089387 -0.101342 0.071542 -0.053538
het 0.054524 0.029711 -0.049340 -0.087127 0.050031 0.047264 -0.008899 -0.058778 -0.003921 -0.110506 -0.023559 0.118079 -0.006799 -0.057876 0.035027 -0.025915 0.003405 0.011796 0.065567 -0.020584 -0.088754 0.000501 0.092190 0.044003 -0.054302 -0.017719 -0.029442 0.128818 0.003603 -0.066908 -0.042428 0.003958 0.061872 0.064823 0.050318 -0.034404 0.025975 0.000820 -0.040864 0.035759 -0.093742 0.011660 0.017247 0.057804 0.065108 0.079996 -0.002807 0.017608 0.061902 0.061832 0.065132 0.015214 0.012743 -0.053177 -0.036311 0.063689 -0.078294 -0.003173 -0.025281 -0.073864 0.030359 0.091969 0.009082 0.047086 -0.080665 -0.008173 0.027145 -0.058690 -0.028520 0.013463 0.049612 0.043452 -0.012012 -0.007488 0.098384 0.080292 0.072713 0.013550 0.102104 -0.165074 -0.040966 -0.043404 -0.031848 -0.032238 -0.030953 0.043484 0.014248 0.139664 -0.082120 -0.029244 0.070612 -0.030663 -0.077980 0.003275 0.116942 -0.060469 -0.013029 0.029525 0.030264 -0.070715 0.142965 -0.095271 0.090606 0.033954 -0.087080 0.037968 -0.077540 0.055041 -0.085467 0.078607 -0.036966 -0.053431 0.087006 -0.068488 0.074666 -0.057658 -0.012992 0.006586 0.120118 0.093851 -0.041315 0.095161 -0.012077 -0.069060 0.028078 -0.099104 -0.009533 0.016036 0.075924 -0.013389 -0.043422 -0.107236 -0.066252 0.026115 -0.131189 -0.060714 0.052849 0.004311 0.059026 -0.021367 0.043199 -0.074529 0.054455 0.024296 -0.029326 -0.029405 -0.001533 -0.027590 -0.022235 0.087050 0.010500 -0.016412 0.027206 0.036273 -0.016232 0.047331 0.031779 -0.034655 -0.054574 0.093885 0.038324 0.038825 0.034541 0.014146 0.060307 -0.003501 0.042258 0.016996 0.125320 0.067313 0.041271 0.095001 0.034490 0.008062 0.012591 0.051267 0.050506 0.049786 0.028486 0.047655 -0.008578 0.045256 0.111672 0.044519 -0.041823 -0.029150 0.076771 -0.011906 0.119961 -0.058032 -0.048952 -0.013349 0.003357 0.032133 -0.006539 -0.001352 -0.042373 -0.049199 -0.021938 0.001454 -0.044188 0.084233 -0.017165 -0.042390 0.010707 -0.024785 -0.007420 -0.049917 -0.046323 -0.029676 0.015709 0.045088 -0.048803 0.008076 0.032321 -0.035553 -0.031104 -0.048227 -0.007014 -0.038052 -0.003215 -0.096091 -0.087823 -0.114787 -0.017364 0.084824 -0.036550 0.141418 -0.041920 -0.035808 0.028778 0.006253 -0.004602 -0.048725 -0.008501 0.066883 -0.047081 0.062280 0.016148 0.048163 -0.050410 0.085162 0.005764 -0.077525 0.033678 -0.028394 -0.012198 -0.022924 -0.057480 0.045336 -0.027781 0.017386 0.014137 -0.016592 0.033867 -0.027878 -0.015408 0.019808 0.104172 -0.002861 0.009400 0.069078 -0.068303 0.003983 -0.047580 -0.043743 -0.113185 -0.076965 -0.009119 0.069789 -0.021724 -0.134727 0.096648 0.142632 0.057344 -0.072935 -0.077671 -0.016479 -0.088997 -0.015300 0.009878 0.083457 0.033820 0.023014 -0.047482 -0.033115 0.010741 -0.034549 0.006656 0.016446 0.006402 0.029833 -0.071617 -0.022553 0.000186 0.032965 0.006992 -0.077276 0.010607 -0.009996 -0.070724 0.028015 -0.011393 0.015144 -0.014370 -0.004967 0.041116 -0.029399 -0.025957 -0.063881 -0.004414 0.014641 0.038661 -0.019740 -0.108602 -0.018598 -0.036955 -0.017093 0.090521 0.031553
een 0.060894 0.024368 -0.017546 -0.035933 0.014221 0.020958 -0.078306 0.011367 0.054471 -0.024923 0.079110 -0.057824 -0.029996 0.040120 -0.074893 0.045552 -0.008088 0.012431 0.033313 -0.019450 0.000879 -0.054496 0.029195 -0.046174 0.018484 0.034154 0.012141 0.129385 0.032587 0.058580 0.010460 -0.026828 -0.065053 -0.003801 0.015016 -0.021004 0.031754 -0.007237 0.007210 -0.101306 -0.033544 -0.031747 -0.006293 0.109814 0.035572 -0.019676 -0.114610 0.005266 0.036626 -0.009037 0.067802 -0.056363 0.052688 -0.005158 0.071376 0.027615 -0.084712 0.037308 0.029021 0.052545 -0.023868 0.043401 0.058778 0.018877 -0.000953 -0.027245 0.006149 0.009419 0.115161 -0.077935 0.133530 -0.054735 0.072496 0.007538 0.013466 -0.058845 0.019205 0.005986 -0.026620 -0.000634 0.035365 -0.052225 0.059241 0.003535 0.002336 0.044985 -0.024643 -0.069068 0.024500 0.007779 -0.046129 -0.050133 0.097411 -0.113313 0.016358 -0.069215 -0.100483 -0.000702 0.085569 -0.059186 -0.004859 0.008598 0.071011 -0.019906 -0.075884 0.040646 -0.027806 0.035894 -0.085259 0.056087 -0.037848 0.092392 0.014580 -0.025672 0.048472 0.015601 0.009235 -0.086700 -0.002124 -0.005643 -0.008182 0.037752 0.009818 -0.090101 0.085501 0.060635 -0.086567 -0.033236 0.149501 0.044657 -0.051601 0.098154 0.068545 0.076267 -0.066558 -0.081966 -0.046678 0.015870 -0.043340 0.040827 0.069165 -0.053270 0.005653 0.076255 -0.001071 0.012753 -0.056381 -0.019881 -0.018048 0.046333 -0.052281 0.062604 -0.067459 -0.039859 0.072791 0.064144 0.013044 -0.049610 -0.019935 0.034115 -0.045392 -0.022719 -0.015375 -0.019812 0.122307 -0.038164 -0.002756 -0.030977 0.041588 0.075824 0.065572 0.058559 -0.030486 0.040775 0.031343 0.015486 0.027822 0.012699 -0.091464 -0.178954 -0.018244 -0.030581 0.030827 0.026440 0.043279 -0.016147 0.052694 0.003875 0.059878 -0.022663 -0.045882 0.025739 -0.003449 -0.126543 0.004865 0.032274 0.060832 0.037320 -0.034809 -0.003901 0.029681 0.066587 -0.061251 -0.020501 -0.056395 -0.119234 -0.000384 -0.118417 0.000874 0.034755 -0.127783 -0.025784 -0.117747 -0.027582 -0.081284 -0.033778 -0.050157 -0.051288 0.067393 -0.028261 0.008814 0.021053 0.038261 0.012571 0.084470 0.091949 -0.033049 0.064013 0.058944 0.029832 0.084855 -0.036525 0.073696 -0.059422 0.084830 0.017417 0.136405 0.088998 -0.100925 0.017521 0.030685 0.006821 -0.008157 -0.034146 -0.044146 0.080423 0.021069 0.148393 -0.013361 -0.001048 0.088514 -0.047927 -0.028117 0.014257 0.069698 -0.006217 0.008341 -0.017859 0.075686 -0.000390 0.137995 0.031716 0.067515 0.044491 0.088207 -0.021120 0.015328 -0.047534 0.067845 0.087676 0.028971 -0.012455 0.005596 -0.026364 0.049972 0.019567 0.009977 -0.055058 -0.008791 0.013537 -0.098739 -0.014800 -0.007958 0.006984 -0.051479 -0.074539 -0.087696 -0.113508 0.072836 0.063397 -0.109825 0.083908 0.101116 0.053236 -0.009271 -0.006866 0.036689 0.023231 -0.020062 0.026515 0.028250 0.032835 -0.080948 0.055882 0.028644 -0.025894 -0.016409 0.023686 -0.094820 0.016024 -0.060557 0.046643 -0.015860 -0.064335 -0.049868 -0.065310 0.038418 0.049638 0.053280 0.036672
en 0.017058 -0.006313 0.027340 0.024013 0.081176 -0.064825 -0.092655 -0.040188 -0.012582 -0.009724 -0.001004 0.117094 0.060812 0.037098 0.033665 0.088541 -0.030552 0.072053 -0.014398 0.049170 -0.010712 -0.079744 0.049941 0.098313 0.061484 0.058091 -0.030978 0.060735 -0.020335 0.015823 -0.029731 -0.003607 -0.006288 0.099084 0.020878 -0.046583 0.073338 0.085881 -0.035547 -0.038962 -0.060745 -0.009223 -0.045310 -0.056570 0.119425 0.028088 -0.012555 0.064476 0.007909 -0.054311 -0.097772 -0.038220 0.020579 -0.003238 0.100416 0.041076 0.077675 -0.038261 0.075095 0.062014 -0.045958 -0.073532 -0.041352 -0.058103 0.027020 0.016740 0.042444 -0.055809 0.054693 0.048244 0.111533 0.027297 0.022288 0.038966 0.009507 0.055989 -0.073906 0.008109 0.111996 -0.027406 -0.064250 0.024262 0.075469 0.105672 -0.045245 0.093929 -0.025166 -0.032201 -0.018457 -0.031812 -0.032790 -0.050665 -0.115403 -0.014117 0.015668 -0.066317 -0.095483 0.023264 0.034095 0.012011 -0.070365 -0.039430 -0.009837 -0.053916 0.018710 -0.099945 0.026468 -0.110833 -0.053135 -0.048630 -0.069471 0.038970 -0.028141 -0.061189 0.065909 0.007994 -0.011014 -0.107707 -0.059305 -0.037384 -0.074571 -0.039745 -0.008305 0.058586 -0.063296 -0.006980 -0.110395 -0.011828 -0.052171 0.028723 -0.032698 -0.036202 -0.034923 -0.014320 0.070509 0.048670 -0.016815 0.008403 0.036091 -0.006414 0.008445 0.051094 0.046532 0.058487 0.032352 0.015122 0.047501 -0.091674 0.046914 -0.048379 -0.117845 0.019838 -0.070322 -0.100668 -0.049045 0.048400 -0.047997 0.039064 -0.064424 0.043704 -0.026669 -0.049252 0.063370 -0.013197 0.045156 -0.066674 -0.010365 -0.017243 0.003461 -0.019516 0.032924 0.051284 -0.082622 0.005801 -0.027322 -0.089852 -0.150444 -0.037071 -0.081371 -0.050169 -0.064802 0.059219 0.084614 0.068587 0.014156 0.025707 0.102902 -0.023880 0.088724 0.024077 -0.000157 -0.114842 0.012280 -0.043558 0.037468 0.040239 -0.040258 0.053392 -0.010910 -0.019546 -0.033130 -0.050062 0.008616 0.030551 0.055399 -0.061085 -0.037238 0.106371 0.048290 -0.010016 0.059312 -0.093740 -0.086643 -0.058331 0.037111 -0.003504 -0.050119 0.004759 -0.061697 0.113114 0.040004 0.006513 -0.068716 0.018239 0.039618 0.001450 0.015754 0.030805 -0.076632 0.034107 0.085356 0.049191 0.029027 0.021659 -0.110382 -0.078883 0.007210 0.024167 -0.016969 0.022551 0.047417 -0.034403 0.006143 -0.041347 -0.037365 -0.006856 -0.074843 -0.057147 0.028792 0.076706 -0.064297 -0.009369 -0.031086 0.059643 0.002391 0.013353 -0.056136 -0.001536 0.171391 0.007171 0.075245 0.004475 -0.047494 -0.058760 0.016850 0.033804 -0.006798 -0.057705 -0.080332 0.005810 -0.010519 -0.040986 0.016953 0.134454 0.078933 0.023837 -0.064007 0.052879 0.060518 0.069132 0.090442 -0.116135 -0.020029 -0.079230 -0.001132 -0.047068 0.074363 -0.037025 0.003631 0.010813 0.001004 0.039858 0.016276 -0.004673 0.016681 0.018057 0.031383 0.007517 -0.019935 0.018461 -0.068899 0.091856 -0.030432 0.099041 -0.020835 0.024153 0.011332 -0.088433 0.033599 0.117182 0.054233 0.050876 -0.098248 0.010994 0.028423 -0.030529 -0.043305 -0.056441 -0.027958 0.091153
is 0.008602 -0.014669 -0.078999 -0.064964 0.040234 -0.034865 0.042930 -0.114940 0.025255 0.024441 0.038064 -0.051284 0.013671 0.073976 -0.061943 0.038980 -0.044078 -0.038273 0.045325 -0.029834 -0.030298 0.072989 -0.020449 -0.029261 -0.030603 0.011496 -0.056446 -0.089996 -0.010730 0.101526 -0.009104 -0.073003 -0.009872 0.005968 -0.055497 -0.015978 0.112821 -0.045204 -0.018007 0.015111 -0.024387 -0.053113 -0.032089 0.005765 0.012704 -0.094667 -0.019722 0.134805 -0.155089 0.070454 0.034362 0.003597 0.003225 -0.000936 0.125742 0.014125 0.011233 -0.110285 0.027057 0.025460 0.097594 0.051973 -0.002497 -0.071974 -0.047624 -0.056262 0.018629 -0.127864 0.067191 0.000814 -0.007302 0.014505 0.025118 -0.052951 -0.012561 0.014136 0.015405 -0.001403 -0.132902 -0.079008 -0.015565 -0.064720 -0.014838 0.072526 0.048261 0.039689 0.009656 0.041206 0.003230 -0.088404 -0.032784 0.057175 0.000794 0.008001 -0.087653 -0.086833 -0.046194 -0.068290 0.071024 -0.117295 0.030848 -0.051092 0.071870 0.060197 -0.089764 0.008777 -0.002491 0.014935 0.020382 0.023734 -0.069332 -0.099504 -0.007087 0.016155 0.024648 0.008922 0.074044 -0.051178 -0.025515 -0.098045 0.032425 0.028588 0.029359 0.041188 0.025851 0.055723 -0.088821 -0.004139 0.057179 -0.037461 -0.032259 0.091239 0.034014 -0.121396 -0.021957 -0.086376 0.042662 0.005900 -0.004079 -0.117733 0.021188 -0.051460 -0.054793 0.056634 0.052585 -0.044830 -0.009076 -0.024644 0.012907 0.019835 -0.076576 0.085022 0.001916 -0.006309 -0.034422 0.000996 0.086676 -0.100459 -0.081008 -0.037130 -0.011353 -0.043199 0.084934 0.023020 0.009253 0.047846 0.045191 -0.080501 0.004909 0.020209 0.112176 0.019111 -0.098392 -0.006593 0.028400 0.118104 0.101179 0.018636 -0.025084 -0.024317 -0.077469 0.128799 -0.002075 -0.008344 0.004747 -0.048147 -0.008566 -0.024578 0.060081 -0.058378 -0.060423 0.048089 -0.023324 -0.110854 -0.025320 0.014614 0.020951 -0.025402 -0.016062 0.054661 -0.004547 0.089073 -0.118087 -0.079875 0.118356 -0.011200 0.068532 0.002974 -0.132465 0.082999 -0.078685 0.033888 0.035871 -0.011967 -0.057617 0.013612 -0.107858 -0.023361 0.046303 -0.062529 -0.027753 0.031046 -0.090419 -0.009823 -0.066832 0.002312 0.044589 0.011282 -0.011226 -0.039141 0.038696 -0.042790 -0.010574 0.000151 0.008078 -0.039178 -0.036358 0.025357 -0.113258 -0.063537 -0.109117 -0.004933 -0.008324 0.067428 -0.113643 0.058531 -0.031271 0.011811 -0.012158 0.024197 0.043431 -0.021613 -0.054801 -0.034390 0.084975 -0.091147 0.026612 -0.010150 -0.056742 -0.007943 0.051057 0.058774 0.030894 0.021667 -0.004345 -0.030058 -0.033023 0.043397 0.012309 -0.045203 0.016562 0.035590 -0.024175 0.012030 0.039531 0.008291 -0.044823 0.017464 -0.014143 -0.121559 -0.011151 -0.007186 0.066347 0.103526 -0.059257 0.064149 -0.069353 0.035575 0.003923 0.045427 -0.010158 0.121306 -0.011994 0.066957 -0.010904 0.001783 -0.026360 0.009784 -0.042594 -0.046569 0.030550 -0.055212 -0.062556 0.102669 -0.013089 -0.034320 0.045007 0.041374 -0.014443 0.019496 -0.054394 -0.109846 -0.043280 -0.105151 -0.005102 -0.019357 0.021368 0.035091 0.035037 0.053664
op 0.082375 0.013053 0.001422 -0.008500 0.043710 0.019941 -0.081074 -0.009284 -0.057403 -0.064693 -0.072698 0.076926 0.086234 -0.026625 0.033503 -0.027546 -0.078302 -0.002331 -0.025574 0.104465 -0.036558 0.043183 0.053086 -0.004630 -0.045976 0.028985 -0.063174 0.080478 0.086570 -0.003007 -0.004942 0.070849 -0.092805 0.014718 0.079180 0.047262 -0.039372 0.011993 0.004438 0.021985 -0.037179 -0.016749 0.036224 -0.005434 0.040445 0.016869 0.072958 -0.051109 0.006615 -0.051362 0.007738 0.104786 0.076622 0.048668 0.049989 0.048774 0.004694 0.019786 -0.022144 0.159369 0.004611 0.038703 -0.152864 -0.006338 0.032790 -0.046586 0.114978 0.071887 -0.019328 0.022827 0.007374 -0.130523 -0.022588 0.017460 -0.030030 0.038339 -0.048630 0.080059 0.129567 -0.017095 -0.020539 0.045905 0.098469 0.078854 -0.111587 0.088357 -0.010954 0.077968 -0.029355 0.100374 0.075307 -0.079428 -0.059252 0.023381 0.092566 -0.086147 0.047935 -0.014750 -0.030406 -0.075638 0.041084 -0.114180 -0.052179 0.010372 -0.069333 0.014026 -0.003722 0.018464 0.005012 0.036639 -0.013432 0.039383 -0.036551 -0.004390 0.011536 0.028927 -0.002516 0.014222 0.036564 -0.049001 0.023812 -0.038625 -0.051868 -0.026669 0.054367 0.052682 -0.032538 -0.003299 -0.081141 -0.074644 -0.029234 -0.011203 -0.049588 0.064431 0.090842 0.009463 -0.004370 -0.005738 0.024564 0.032622 0.006724 0.067734 0.065483 0.007994 -0.087658 0.014779 -0.070358 0.069528 0.102610 0.007329 0.051345 -0.042570 -0.087272 -0.045973 -0.024794 0.018559 -0.113106 0.005970 0.036891 0.045071 -0.038972 -0.062266 0.059116 -0.023171 0.090777 -0.027763 0.023632 0.015152 -0.015009 -0.040724 0.008419 0.035416 0.032153 0.005502 -0.058691 0.007888 -0.072061 -0.018931 0.030176 0.061613 0.026571 0.018500 0.077149 0.007341 -0.010317 -0.029374 0.076817 0.096196 -0.040933 -0.118623 0.028628 0.006043 -0.016348 -0.072021 -0.011257 -0.012016 0.058075 0.052459 0.013223 0.025410 0.027219 -0.051061 0.061757 0.039872 -0.016951 -0.110342 0.042945 -0.087275 -0.015294 0.088854 -0.039763 0.095520 -0.033284 -0.090230 -0.125188 -0.051002 -0.041255 -0.000934 0.006652 0.037684 -0.196099 -0.036734 0.022668 0.032721 0.083051 -0.037813 0.010288 -0.020121 0.004048 0.059532 -0.010079 -0.004785 0.000830 0.049562 -0.057467 -0.008635 -0.016258 -0.004178 0.021014 -0.082539 -0.040727 -0.090888 0.125509 -0.022528 -0.002258 -0.049842 -0.006271 0.081971 0.095519 0.004499 -0.038492 0.071496 -0.006371 -0.063806 -0.047760 0.055084 -0.084489 0.020894 -0.035094 -0.010359 0.048908 -0.080712 0.043257 0.018644 -0.026931 0.026789 -0.011712 -0.102805 -0.020570 0.065991 0.044915 -0.045713 0.051479 -0.010974 -0.028842 0.032099 -0.063401 -0.013255 -0.020073 -0.020857 -0.005792 -0.015837 0.060375 0.136582 0.098236 0.017810 -0.032079 -0.096860 -0.000146 -0.028719 -0.023241 0.021546 0.116151 0.020374 0.000144 -0.008647 0.133467 -0.004864 -0.045784 -0.058603 -0.061332 -0.061206 0.006014 0.040331 -0.047789 -0.042436 -0.041485 -0.038075 0.004020 -0.003106 -0.088298 -0.038440 0.003270 -0.012504 0.003993 -0.062617 -0.125112 0.034421 -0.095243 0.008005
voor 0.028208 0.003683 -0.006538 0.020431 0.003480 -0.028121 0.036938 0.010599 -0.004710 -0.010201 0.056398 0.119500 -0.013032 -0.086458 0.041017 0.072138 -0.046960 0.042949 0.091583 0.134092 -0.014719 -0.068832 -0.025740 0.048581 -0.058571 0.040692 -0.070596 -0.034352 0.020553 -0.026749 0.045577 0.016559 -0.026536 0.051174 -0.031673 0.061619 -0.011371 0.013283 -0.078700 -0.036290 -0.007509 0.050711 0.052714 -0.035616 -0.078993 0.050548 0.090917 0.064349 -0.031224 0.005124 0.105729 0.070889 0.019483 0.014315 0.014125 -0.009000 -0.040535 -0.003121 -0.058237 0.014999 0.008082 -0.027927 0.002435 -0.016471 0.030841 -0.037001 -0.117552 -0.030112 0.069349 0.026864 -0.036525 0.047140 -0.013016 0.044605 0.029253 0.103185 0.008001 0.059742 0.137401 -0.143545 -0.013432 0.016236 0.035220 -0.043067 0.001230 0.128690 0.054587 -0.027531 0.006309 -0.122843 0.010612 -0.080468 -0.041406 0.084279 0.114532 -0.001453 -0.035186 -0.007566 0.118722 -0.029505 0.034924 -0.064192 0.003750 0.121558 -0.045433 0.018838 -0.013803 0.069785 0.040277 -0.043428 -0.062608 -0.053135 0.066199 -0.032405 0.063750 -0.082234 0.033425 -0.007394 0.032062 -0.036577 -0.084441 -0.010816 0.012544 0.013203 0.077834 -0.027971 0.058074 0.084027 -0.002487 0.022850 -0.082639 -0.019302 -0.012261 -0.107182 -0.054079 -0.071415 0.023124 0.069980 -0.004843 -0.015234 0.121444 -0.058658 -0.067222 -0.021213 -0.133410 -0.068721 0.053301 -0.006518 0.002235 0.003004 0.008694 -0.084166 0.024039 0.059934 0.029866 -0.088225 -0.031215 0.007250 -0.022298 0.056433 0.034469 0.022184 0.049905 -0.030521 0.089519 0.105523 -0.063198 0.017524 -0.097832 0.060673 0.044101 -0.045184 -0.061755 -0.039725 0.022727 -0.020714 0.139337 0.048654 -0.005341 0.041794 0.002179 0.005844 0.096486 0.021340 0.070202 -0.052861 0.023283 -0.077970 0.091754 0.031088 0.010807 0.026453 -0.002587 -0.020651 -0.130113 0.030190 -0.008461 0.011263 -0.006235 -0.002188 -0.177129 0.063033 -0.006337 0.032694 0.049606 0.016052 0.069886 -0.019802 -0.015578 -0.014629 0.038478 -0.020428 0.024877 -0.072244 0.001911 0.010426 -0.018850 0.050758 0.024575 0.126814 0.045669 0.044044 -0.106450 -0.083968 -0.000903 0.009099 0.043043 -0.004331 0.053014 0.026890 0.021091 0.043943 0.122657 0.013711 0.025545 0.020411 0.065881 -0.027620 -0.010462 -0.004249 -0.021061 0.124134 0.076326 -0.069437 0.062784 0.013929 0.043768 0.109419 -0.050786 0.002283 -0.065752 -0.063410 -0.028703 -0.091152 -0.068722 -0.028824 -0.021920 -0.114033 -0.051549 -0.011894 0.054796 -0.003298 -0.032397 0.009643 0.036379 -0.037297 -0.061684 0.044163 -0.024353 -0.053493 0.051072 -0.088041 -0.011310 0.030065 -0.018245 -0.098259 0.059314 0.037770 -0.025852 -0.052630 0.089141 -0.012888 -0.017425 0.037977 0.020320 -0.046175 0.038359 -0.077688 -0.065124 0.016029 0.016201 0.014539 -0.038577 0.043432 -0.052029 0.085715 -0.002551 -0.006907 -0.006599 -0.019401 0.012982 -0.043623 0.103893 0.009961 0.025242 -0.054216 -0.054087 -0.056976 0.037720 0.112412 -0.037700 -0.016870 0.078322 0.010429 0.107123 0.004275 0.044393 -0.003119 0.020625 0.070512
zijn -0.076202 0.052398 -0.086612 0.021474 0.041240 -0.034449 -0.097931 -0.082395 0.054608 0.021250 0.068099 0.019703 0.043342 0.002336 0.094613 -0.000403 -0.035116 0.068401 -0.028852 0.093157 -0.007948 0.058274 0.091434 -0.055141 0.082587 -0.038657 0.055761 0.020559 -0.012752 -0.035320 -0.103583 0.127262 -0.002150 -0.010726 0.028188 -0.092212 0.066344 0.041536 0.002415 -0.046121 -0.003598 0.076078 -0.098468 0.050525 -0.011279 -0.036140 0.068750 0.039932 0.111688 -0.055351 -0.025559 0.031918 0.011645 0.044950 -0.009676 0.079029 -0.027856 0.006110 0.069224 -0.002436 0.054847 0.014328 -0.017539 -0.023867 -0.034388 -0.081371 -0.024345 0.047687 0.091259 -0.104414 0.021108 0.020425 0.007060 0.008174 0.022733 0.015441 0.034346 -0.017112 0.026997 0.074553 0.018427 0.035302 0.135987 0.020767 0.026981 -0.060417 -0.007227 0.015239 0.162985 -0.022104 0.011332 -0.028772 -0.037086 0.054098 0.045575 -0.057953 0.014276 -0.022255 0.023805 0.103169 0.005281 -0.085053 -0.026076 -0.039916 0.084698 0.008614 0.021207 -0.058322 0.036386 0.037022 -0.024612 0.025235 -0.033021 -0.004291 0.027377 0.049409 0.028584 -0.067083 -0.009158 -0.003876 -0.042933 -0.002878 -0.079939 -0.010753 0.102355 -0.023011 -0.021787 -0.006975 -0.050930 -0.055180 -0.021751 -0.112735 -0.017903 0.022876 0.019110 0.052754 0.021893 -0.048762 0.021996 -0.037602 0.072489 -0.113179 -0.000978 0.027760 -0.048463 0.023055 0.044119 0.056784 -0.015472 0.064545 -0.055321 0.020869 0.040740 -0.070359 -0.023802 -0.003574 -0.064696 -0.002245 -0.062862 -0.052208 -0.029511 0.006958 0.009441 -0.173574 -0.060396 0.008979 0.014785 -0.140863 -0.042668 0.010052 0.011181 0.085371 0.037908 0.030547 -0.040346 0.029354 -0.025095 0.053714 -0.098621 -0.055188 -0.026160 0.035796 0.048137 -0.039340 -0.034333 0.023605 0.025905 0.021811 0.067631 -0.029897 0.038545 -0.100553 -0.113810 -0.029109 -0.032079 0.000692 0.038859 0.029636 0.014592 0.003612 0.023047 0.031979 -0.138467 -0.158223 -0.036633 -0.004826 -0.037141 0.028717 0.062741 -0.048868 -0.101740 -0.069666 0.049154 0.104903 -0.023131 0.037521 -0.055283 -0.038731 0.000002 0.069871 -0.038721 -0.035684 -0.020031 -0.031493 0.048852 -0.033993 0.118113 -0.013439 -0.086981 0.017828 -0.054862 -0.023929 0.048816 0.037261 0.047845 0.049109 -0.068916 0.080000 0.018806 -0.121618 -0.028371 0.032432 0.006778 0.007904 -0.031217 0.075802 -0.003262 -0.035785 0.023800 0.070448 0.065167 -0.124673 -0.030428 -0.050781 0.012525 -0.042447 -0.009503 -0.081811 0.043415 -0.048977 0.123457 -0.054415 -0.082574 0.125412 -0.076690 -0.017381 -0.083808 -0.072343 0.026856 0.004184 -0.012745 0.032084 0.018618 0.007131 -0.067330 0.073601 -0.010277 0.058218 -0.138274 0.013346 -0.084236 0.014584 -0.025295 -0.043438 0.097814 -0.101802 0.091209 -0.059268 0.012875 0.104108 0.011559 0.018105 -0.065119 -0.051007 0.042586 0.000635 -0.031325 -0.033871 -0.041511 0.007448 -0.038508 0.061197 0.070316 0.054472 0.003819 -0.052658 -0.003310 -0.046909 0.020265 0.037835 -0.004678 -0.018829 -0.020305 0.080227 -0.078385 0.063469 -0.062815 -0.008250 0.023657 0.027083
met 0.085448 0.052609 -0.068533 -0.011175 -0.024099 -0.041660 -0.074355 -0.022062 0.002750 0.040072 0.050018 -0.011934 0.004202 -0.033253 0.093840 0.064015 -0.006449 -0.007078 -0.009730 0.101248 -0.066939 -0.029934 0.110346 0.072500 -0.027642 -0.051010 -0.055054 0.019829 0.000333 -0.014717 -0.021090 0.028063 0.058608 0.071673 0.015981 -0.004609 0.091302 0.054647 0.066778 0.065330 -0.029254 0.019797 -0.062799 -0.002601 0.038664 -0.021047 0.134325 -0.033635 -0.010218 -0.090667 0.019028 0.152823 -0.034273 -0.032035 0.012583 0.052489 -0.010393 -0.035580 0.011008 0.050342 -0.057142 -0.061449 0.029198 -0.031010 0.101601 0.021354 0.065065 0.024489 -0.034612 -0.031906 0.039191 -0.001878 -0.002429 0.020470 -0.086176 0.091325 -0.091686 0.094107 0.055192 0.022055 -0.032495 -0.065806 0.018624 0.090252 -0.042551 0.029834 0.027035 -0.069120 -0.031092 -0.070291 -0.036605 0.045511 0.034387 -0.007949 0.005134 -0.085501 -0.062400 -0.111670 0.018865 0.035724 -0.031432 0.005959 -0.071361 0.054427 0.032746 0.048413 0.007555 -0.013592 0.014563 -0.025167 -0.003686 -0.001779 -0.108225 -0.114004 -0.012401 0.108363 -0.004310 -0.036688 -0.012081 0.055689 -0.011201 -0.050845 -0.089791 -0.049765 0.008920 0.010694 -0.027695 0.065327 -0.026277 0.029491 0.004492 -0.004962 -0.073799 -0.026497 0.023636 -0.022970 -0.004354 -0.031323 0.064439 0.022586 -0.001843 -0.043617 0.037748 0.125026 0.038543 0.117170 0.014064 -0.026257 0.020140 0.077513 0.007346 -0.026192 -0.089983 -0.057577 0.019631 0.144655 0.058563 -0.108858 0.041557 0.000848 -0.023064 -0.082601 0.090142 -0.021395 -0.001509 0.012328 0.064022 0.022774 -0.079139 -0.013227 -0.082620 0.075363 -0.041883 0.003568 -0.035175 0.036452 -0.004805 0.056575 -0.036538 0.009232 -0.025380 -0.025137 -0.032844 0.035326 0.047170 0.028789 0.158470 -0.021561 -0.031055 -0.011512 -0.030374 -0.035920 0.023935 0.062915 0.016887 -0.021682 -0.072948 0.038009 -0.011570 0.034689 -0.035352 -0.147932 0.034170 0.000128 -0.034513 -0.116590 -0.051234 -0.010452 0.006442 0.067783 0.065974 -0.058728 -0.081805 0.084503 -0.000292 0.000338 0.052599 -0.020320 -0.008889 0.019126 -0.036493 0.029582 0.029214 0.014568 0.044090 0.017724 0.036972 -0.030382 0.051668 0.036149 -0.004242 0.018760 -0.011763 0.013462 -0.051161 0.132838 -0.002716 0.081290 0.064104 -0.078813 0.045757 0.001702 0.039259 0.065293 0.055383 -0.051033 -0.004400 0.066906 0.138925 0.034526 -0.050246 -0.069136 -0.112095 0.025901 -0.010211 -0.003881 -0.006340 -0.012923 0.057718 0.037967 0.167144 -0.042186 -0.083370 0.036481 -0.003846 0.017911 -0.101365 -0.098816 0.061251 -0.007976 0.099479 0.039837 -0.012794 0.076136 0.084136 -0.005307 0.059536 -0.048920 -0.012171 -0.007427 0.153978 0.056225 -0.012089 -0.007171 -0.021420 -0.071146 0.052089 0.072899 -0.047047 0.090612 -0.046195 0.039298 0.013858 0.027526 0.028797 0.011941 -0.043124 -0.017850 0.045683 -0.088932 -0.097428 0.079889 0.039659 -0.044355 -0.066225 0.013072 0.092347 -0.018157 -0.060813 0.086641 -0.089116 0.098964 0.004159 -0.020919 0.079378 0.025605 0.053342 0.014721 -0.005796 -0.023177
door 0.027014 0.016655 -0.044441 -0.096293 -0.092513 -0.096684 -0.038601 -0.072886 0.026006 -0.027612 -0.108276 -0.004107 -0.002412 -0.050043 0.066608 0.052164 -0.003330 0.046536 -0.001928 -0.103122 0.014283 0.002393 0.085972 0.012064 -0.018710 0.084263 0.027303 0.062971 0.177518 -0.068394 0.111211 -0.044581 -0.030414 0.036679 -0.003974 -0.009966 0.009317 0.073000 -0.087055 0.049697 -0.095142 0.017992 0.086218 -0.017982 -0.031504 -0.054217 0.007028 0.018981 0.019562 0.060751 0.077374 -0.001156 0.092984 -0.111960 0.056657 -0.066402 -0.016187 0.048530 0.052481 0.007619 0.106358 -0.024502 -0.050659 -0.080077 0.090010 0.004856 0.023004 -0.042162 0.021266 0.065472 -0.067745 -0.036321 0.020786 0.063029 -0.058812 -0.002312 0.013287 0.016263 0.037548 0.005076 -0.060047 0.031943 -0.026827 -0.108884 -0.004213 0.069115 0.057709 0.048579 -0.040999 -0.070993 0.042105 0.062980 -0.070735 0.039757 -0.009601 -0.022446 -0.022070 -0.039497 0.094459 0.016819 -0.020361 -0.034096 -0.051126 0.059681 -0.033536 0.107050 -0.116315 -0.048544 -0.048230 0.059572 -0.057680 0.019160 -0.003001 -0.048673 -0.067454 -0.008426 0.022569 0.023248 -0.043415 0.018683 -0.016315 0.018591 -0.018946 0.019647 0.089464 -0.041043 0.053116 0.016421 0.001270 -0.011225 0.023357 0.005188 -0.095879 -0.057527 0.009427 -0.041742 0.068833 0.067084 0.016173 0.007260 0.015349 -0.015474 -0.034298 -0.070032 -0.009188 -0.044913 -0.011275 0.059204 -0.022635 0.024744 0.119793 0.026882 -0.039236 0.046447 0.102385 0.114938 0.070893 0.001399 -0.105931 0.018059 0.000255 -0.011730 0.104199 0.009185 0.073927 0.075015 -0.044864 0.019604 0.105514 0.016119 -0.020644 0.024418 0.022529 0.003894 0.014179 0.019639 0.051214 0.025692 0.021205 0.040448 -0.091265 0.051601 -0.001051 -0.016146 -0.034249 -0.036151 0.002841 0.012800 0.013302 0.064096 0.159282 -0.065424 -0.028427 0.027853 -0.049579 0.104688 0.006711 -0.022030 0.100627 -0.034143 -0.082719 -0.087105 0.033117 0.085003 0.102287 -0.025512 -0.027548 0.019848 -0.076187 -0.015418 -0.002410 0.072214 0.031337 -0.019410 -0.131942 -0.022620 -0.001264 -0.072891 -0.040418 0.119600 0.023891 -0.000202 -0.185287 0.063087 -0.061172 -0.035572 -0.019804 -0.032395 -0.028811 0.061436 -0.013824 -0.036460 0.006481 0.009581 -0.083386 0.054207 -0.024650 0.081565 -0.018444 -0.053109 -0.062866 0.080817 -0.006422 -0.027391 0.064185 -0.024756 0.041403 -0.064718 -0.067452 -0.043173 0.006253 -0.010570 -0.081433 -0.031142 0.046064 0.011663 -0.018033 -0.073397 -0.053910 0.026076 0.005505 -0.071216 0.007437 -0.034279 0.073718 -0.050744 -0.063588 -0.117636 0.114164 0.029584 0.039265 -0.054855 0.010769 -0.030428 -0.011055 -0.147106 -0.021461 -0.003421 -0.005288 0.009517 -0.004519 0.022965 0.019859 -0.000642 -0.029426 -0.062575 0.056006 0.003241 -0.050004 -0.013921 0.010963 0.088601 -0.002391 0.082751 -0.032928 0.014653 -0.032616 -0.173340 0.028652 -0.044067 -0.018440 -0.042857 0.106493 0.032944 0.071005 0.026723 0.029634 -0.005191 0.050286 -0.023658 0.090775 0.018375 -0.008158 0.020658 0.010368 -0.025896 -0.007232 0.010778 -0.008395 0.034723
hij -0.044067 -0.052014 0.081382 -0.004330 0.027592 0.008490 -0.071028 0.022090 0.032655 -0.045570 0.083012 0.023430 -0.036985 0.077518 0.053888 -0.053791 0.005217 0.006602 0.018572 0.056532 0.022922 -0.107728 -0.035710 -0.001544 0.008389 0.007601 -0.031344 0.058527 -0.071099 -0.093624 -0.060720 0.076463 -0.091985 0.055882 -0.005843 -0.007894 0.070427 -0.007528 -0.073849 0.011308 -0.059353 0.037441 -0.005489 0.016430 0.017085 0.035474 -0.020983 -0.032492 0.036594 -0.026389 0.082361 0.020550 -0.039616 0.003082 0.039584 0.026238 -0.058979 0.045702 0.047520 0.160569 -0.051620 0.008367 -0.070475 -0.050200 0.081922 0.038205 0.052045 0.108046 0.081624 -0.068619 0.033014 -0.024187 0.028222 0.094987 0.112104 0.006149 -0.048348 -0.001253 0.096544 -0.006069 -0.023228 0.078454 0.054783 0.087286 -0.024939 0.038069 0.012020 0.098290 0.056958 0.108729 -0.039779 -0.019667 0.045599 -0.055884 -0.003168 0.014165 -0.083366 0.006085 0.043162 -0.046891 0.020189 0.012627 -0.006923 -0.022502 0.060802 0.020882 -0.023277 0.004986 -0.027756 -0.030642 0.013435 0.082888 0.029225 -0.066776 0.033078 0.032535 -0.017780 -0.069028 0.021681 -0.069863 0.098290 0.014772 0.006869 -0.103868 -0.009253 -0.021157 0.011507 -0.013377 -0.000830 -0.042717 -0.101867 -0.131102 -0.060188 -0.045402 0.008076 0.000041 -0.011650 -0.014665 -0.010720 -0.005906 0.101213 -0.076747 -0.102788 0.058685 0.002893 -0.042225 0.023954 0.046324 0.054891 -0.028676 -0.009307 -0.167423 0.061533 -0.048210 -0.081369 0.060569 -0.023540 0.070964 0.012831 -0.080756 -0.008860 0.009279 0.090732 -0.059377 -0.020900 0.021030 -0.011519 -0.045898 -0.035262 0.008981 0.035180 0.075224 -0.005473 -0.048959 0.106208 -0.028198 -0.011654 -0.035146 -0.024545 0.009626 0.084660 0.035444 0.048179 0.006887 -0.002435 0.082525 0.042282 0.017834 0.028496 0.021962 0.006250 -0.118048 -0.040285 -0.004231 0.096693 -0.067657 0.005443 0.043474 -0.012851 0.018016 -0.099952 0.066529 -0.096416 -0.083984 -0.053184 -0.001043 -0.042547 0.013641 0.033481 -0.029058 -0.083662 -0.021309 0.028760 0.019024 0.004678 0.054834 -0.042838 0.083866 -0.079197 0.117955 0.055048 -0.015244 0.029026 0.018404 -0.025105 0.047210 0.079739 0.019173 -0.018595 0.099490 0.049511 -0.036679 0.068890 0.022106 -0.025820 0.130431 -0.018074 0.119983 -0.015398 -0.066229 -0.025958 -0.049044 0.059772 -0.071860 0.052588 -0.057565 -0.017523 -0.047880 -0.053378 0.015367 0.075293 0.107173 0.026097 0.075610 -0.095244 0.029975 -0.017779 -0.038829 0.120508 -0.009214 0.052827 -0.034848 -0.020953 0.069213 -0.103544 -0.048602 -0.019132 -0.116795 -0.029644 -0.079113 0.059452 0.020721 -0.045452 0.082187 0.017590 0.022396 0.024647 -0.014828 -0.069003 0.070076 -0.028385 0.052094 0.078762 -0.037080 0.157135 -0.110458 0.050330 -0.068710 0.053622 -0.006793 0.008391 0.050886 -0.044792 -0.009736 -0.022507 -0.031455 -0.049798 -0.024544 -0.019122 0.050350 -0.045760 0.033972 -0.025737 -0.060836 -0.082138 0.029022 0.035515 -0.070091 0.028072 -0.038705 0.100194 -0.039278 -0.037176 -0.025828 0.007116 0.024608 -0.072684 -0.093865 -0.057958 -0.023553
werd 0.028926 0.041073 0.014526 -0.038213 0.101121 -0.033510 -0.095745 0.024845 0.008392 0.058141 -0.039606 -0.033359 0.069844 0.065519 -0.032692 0.062864 0.044982 0.050781 -0.015509 -0.035786 -0.022143 0.003664 -0.050298 -0.067978 -0.017718 -0.025362 -0.075826 -0.040353 0.021835 -0.050857 0.014308 0.064478 -0.029161 0.047986 -0.035643 0.010762 0.090697 -0.068109 -0.044532 -0.039417 0.002931 0.071632 0.048283 -0.059043 -0.027522 -0.071477 0.095564 0.038457 -0.078094 -0.096622 0.038274 -0.020579 -0.024236 -0.033198 -0.084083 -0.023651 -0.045948 -0.047379 -0.054837 0.012093 0.030560 0.021593 -0.009995 -0.044879 0.068295 0.019612 0.130507 -0.017186 -0.001823 0.010487 0.015152 -0.054161 0.056709 -0.008392 -0.016723 0.025088 -0.011219 0.048142 0.114596 -0.016458 0.010930 -0.013928 0.001239 -0.029703 -0.062176 0.023724 -0.085320 0.029501 -0.044496 -0.003945 0.005793 -0.073690 -0.059902 0.058940 0.068199 -0.046896 0.018922 -0.063426 0.039593 -0.082007 0.050342 -0.047677 0.021752 0.015043 -0.096090 0.105867 -0.042717 -0.082358 -0.060065 0.006067 -0.007348 -0.046213 -0.023115 -0.099994 -0.128741 -0.019373 -0.006786 0.027938 0.010619 -0.128972 0.054969 0.034375 0.095952 -0.004052 0.021471 0.014159 0.025232 0.030738 0.091520 0.014759 0.020898 -0.050092 -0.011968 -0.072123 -0.032416 0.013822 -0.011354 0.010446 -0.047364 0.026491 0.017333 0.040470 0.039558 -0.053634 -0.093266 -0.012417 0.043974 0.035170 0.034169 -0.025088 0.024503 -0.017828 -0.025647 0.031117 -0.035287 0.037878 0.108555 -0.065160 0.003466 0.061394 -0.031165 0.014666 0.147438 -0.001205 -0.021704 -0.058149 -0.136274 0.045374 0.114205 0.047434 0.126141 0.110153 0.030563 0.066947 -0.028275 0.132859 -0.021350 -0.018073 -0.086628 -0.023533 -0.062939 0.067184 0.000897 -0.010683 -0.094989 -0.110408 0.076092 -0.038910 0.019605 -0.013083 -0.018183 -0.020055 -0.027635 0.003073 -0.018506 -0.078202 0.016663 -0.052044 0.020274 -0.055889 -0.032495 0.101674 -0.058309 -0.025478 -0.036957 0.024000 0.124398 0.039160 -0.080601 0.009944 -0.000436 0.018983 0.007365 -0.007736 -0.056066 -0.003622 -0.045271 0.065784 0.040555 0.073511 0.024745 -0.047942 -0.036929 0.011673 0.011588 0.031688 0.039116 -0.033680 0.022944 0.002965 -0.034375 -0.021120 -0.067999 -0.016789 -0.100840 -0.043123 -0.111978 0.006521 0.022820 -0.046074 0.019885 0.101439 -0.007275 -0.084212 -0.053565 -0.006940 -0.015124 -0.062520 -0.064189 -0.066541 0.048754 0.018578 -0.182736 -0.021250 -0.028517 -0.017097 -0.068852 -0.023112 -0.047571 -0.011143 0.075587 0.035986 0.031084 -0.018875 0.075443 0.069553 -0.020238 -0.068470 0.112843 -0.113138 0.057737 -0.086057 -0.102899 -0.027760 -0.037198 -0.065373 -0.058164 -0.080728 0.089802 0.077125 -0.064639 -0.030894 0.114224 0.126680 -0.016935 -0.082400 0.044301 0.021867 0.003115 -0.013631 0.056011 0.041339 -0.050423 -0.031990 -0.035498 0.000162 -0.056138 -0.067289 -0.021933 -0.031570 0.002153 0.027238 -0.043093 0.067828 -0.016948 0.003739 0.027947 -0.051172 0.061621 -0.047649 0.096085 0.101992 0.043339 -0.045641 -0.085583 -0.002491 -0.090637 0.047209 0.003568 0.019018
te 0.051438 -0.065785 0.015033 -0.031172 0.010509 -0.047735 -0.063829 -0.040698 -0.021846 -0.007282 0.036254 0.056088 0.048221 0.025004 0.064574 -0.076504 -0.099063 -0.014565 -0.014900 0.017166 -0.079797 0.044121 0.081778 -0.082930 -0.025221 0.093510 0.097642 0.082034 0.029670 -0.133331 0.015548 0.029785 0.016722 0.065687 0.203482 0.105717 0.087235 -0.043280 -0.054156 -0.024712 -0.060624 0.042931 -0.002746 -0.140696 -0.058699 0.050518 0.025914 -0.038817 0.088144 -0.053852 0.039624 -0.044219 -0.018908 0.008313 0.017938 0.050119 -0.093184 0.020297 0.020833 0.022040 0.011585 -0.021510 -0.034482 -0.037801 0.067826 0.011024 0.038867 0.086558 -0.105108 0.075092 -0.032480 0.021364 -0.021285 -0.002624 -0.078822 0.012267 -0.003796 0.009039 0.109097 0.039446 0.014336 -0.031870 -0.008545 0.072671 0.025811 -0.074747 -0.082458 0.023155 0.079917 0.064052 -0.001242 -0.015297 0.050481 0.012727 -0.033205 -0.013800 -0.051534 -0.028866 -0.018367 0.024730 -0.124196 -0.012302 0.026217 -0.012117 0.043418 0.069970 -0.032247 0.040820 0.000400 -0.048757 -0.015803 0.008735 -0.077928 -0.011102 0.045763 -0.008807 0.058564 0.009795 0.028174 -0.059069 -0.192146 0.070592 0.105881 -0.031921 -0.026269 -0.058463 -0.136326 0.061366 0.001167 0.054445 -0.063818 0.018872 -0.081783 -0.003247 0.026962 0.044778 0.036170 -0.003623 -0.034468 -0.001950 -0.043300 -0.054667 0.034141 0.074459 -0.055712 -0.045949 -0.035533 0.059908 0.041577 -0.023593 0.011515 0.018580 -0.022594 0.042312 0.042839 0.001770 -0.025371 0.018010 -0.037805 0.026546 0.144454 0.038105 -0.060933 -0.005300 -0.036999 0.041619 0.025744 -0.047798 0.035831 0.057217 0.009944 -0.021265 -0.010758 0.027768 -0.014071 -0.020261 0.014619 -0.113977 0.040219 0.020491 0.059424 0.040366 0.066987 0.013077 -0.021420 0.094252 -0.007331 -0.065183 0.006201 -0.063431 -0.077659 -0.115176 -0.016455 -0.023927 -0.023853 -0.051894 0.020219 0.035106 -0.019443 -0.003886 -0.089722 0.023115 -0.027978 0.014562 0.037328 -0.066654 0.138446 -0.083993 0.013135 0.021173 -0.031498 -0.082368 0.042265 -0.044396 0.075332 0.071995 0.003125 -0.046239 -0.004921 0.041481 0.013658 0.068177 0.066412 -0.039236 0.135555 0.102080 0.007872 0.067431 -0.090941 0.103732 -0.017110 0.038610 0.080146 0.046227 0.012427 -0.027821 0.037503 0.026474 0.135262 0.056155 -0.029580 0.106506 0.040995 0.071867 -0.032731 -0.053322 0.008139 -0.025633 0.000481 0.063686 -0.006986 -0.016327 0.000400 0.004103 -0.005968 -0.045113 0.009983 -0.041174 0.041335 -0.043358 0.057426 -0.014738 -0.066248 0.042255 0.030685 0.097799 0.025361 -0.087452 -0.001041 0.093442 -0.015634 0.020315 -0.004076 0.035175 -0.017355 0.036772 -0.012905 -0.053982 -0.026042 -0.011290 -0.076081 -0.116852 0.027938 -0.067041 -0.059273 -0.082287 -0.043439 0.029717 -0.055995 -0.006540 -0.055944 -0.032424 -0.019818 0.038087 0.002016 0.075055 -0.062471 -0.001728 0.039001 -0.027721 -0.072891 -0.084471 -0.103450 0.003360 0.003180 -0.050272 0.053592 -0.003520 0.054085 -0.027387 0.007799 0.011462 -0.119687 0.092121 -0.052633 0.021904 0.045311 0.003835 -0.109001 -0.023177
uit 0.076574 0.005102 0.013594 -0.046415 0.037676 -0.005260 -0.022966 0.028934 0.108055 0.027436 0.050464 -0.068532 0.019264 0.036478 0.048764 0.005194 0.128358 0.015856 0.105044 -0.074747 -0.022770 0.043522 0.001749 0.054613 -0.126239 -0.030395 0.011214 -0.114295 -0.140607 0.054845 0.033359 -0.062950 -0.035826 -0.075300 -0.030073 0.050401 0.096381 0.049021 -0.033714 -0.081763 0.048506 0.020595 0.069862 0.044022 -0.013212 -0.061155 0.070939 0.019448 0.072732 0.041722 -0.091715 -0.046959 0.057677 0.044541 0.015486 0.009184 -0.034989 -0.046124 0.053481 -0.035055 0.021700 0.027398 -0.040315 0.034541 -0.036561 0.049739 0.069834 -0.032130 0.046554 0.046564 0.044141 0.011743 -0.048489 -0.047455 -0.053600 0.009561 -0.007024 -0.045690 -0.146215 -0.012335 -0.022198 -0.014399 -0.034866 0.022035 -0.103511 -0.020068 -0.075301 -0.035382 0.061067 -0.119210 -0.047293 -0.005101 0.028779 -0.094069 -0.048390 0.001379 -0.030161 0.077049 0.108936 0.038115 -0.015476 0.085592 0.045325 0.026298 -0.053384 -0.050614 -0.002506 -0.007779 -0.053114 -0.026250 0.028503 0.029771 -0.006145 -0.069980 0.024060 0.041218 0.099664 -0.009305 -0.066732 -0.059118 -0.039932 0.047819 -0.039790 0.023485 0.037221 0.036465 -0.060115 0.008126 0.068166 -0.004866 -0.040989 0.014673 -0.011934 0.075724 0.019522 -0.063649 0.055741 -0.015100 -0.000750 0.022482 -0.001730 -0.049268 0.054433 0.011800 0.128286 0.143910 -0.207042 -0.081200 0.045082 -0.050583 -0.036200 -0.031630 -0.091816 -0.001341 -0.087326 -0.058224 -0.003072 -0.002404 0.024197 0.046000 -0.026599 -0.064738 -0.005174 -0.051088 0.061694 0.046608 -0.089829 -0.101838 -0.101276 0.044942 -0.019801 -0.070912 0.010432 0.022098 0.073823 -0.119194 0.007640 0.084030 0.021957 -0.042673 -0.002594 -0.037139 -0.037911 0.015032 -0.060400 -0.012683 0.001850 0.042499 -0.025570 0.063487 -0.002303 -0.008425 -0.041478 -0.071064 -0.019800 0.001022 -0.047959 -0.042367 -0.037247 -0.000669 -0.074066 -0.071267 -0.098827 0.044893 -0.006307 -0.073514 0.026902 -0.039736 0.011692 0.061555 -0.108989 -0.039776 -0.015319 -0.056902 -0.062351 0.019017 -0.082197 -0.018394 -0.013504 -0.038625 0.067880 0.021774 -0.085514 0.033825 0.100778 -0.013333 0.133387 0.051298 -0.046644 -0.070327 0.006945 0.028060 -0.005083 0.074490 0.012234 0.017459 0.010053 0.064979 0.041931 0.035606 -0.012384 0.047526 0.013443 0.055040 -0.026544 0.029347 0.054244 0.050883 0.077192 -0.030349 -0.020492 -0.008907 -0.042378 0.059639 -0.078037 -0.085111 -0.028696 0.037917 -0.012737 0.003690 0.028725 0.010001 0.052873 -0.057068 0.017614 -0.031870 -0.121961 -0.049104 -0.038165 0.001622 -0.027074 0.007170 0.007031 0.012126 -0.028133 -0.023995 0.059025 0.030972 0.007504 -0.139709 0.027370 -0.060818 0.087910 0.058381 0.057269 0.100371 -0.001623 0.053974 0.133917 -0.026891 -0.016555 0.045294 0.108188 0.088504 0.019048 -0.025020 0.028764 0.031673 -0.041382 0.042893 0.010970 0.021654 0.024144 -0.017622 0.080888 -0.096162 0.015871 0.036900 0.043520 -0.105823 -0.028401 0.042325 0.010753 -0.098212 0.003284 -0.075394 0.023842 0.069121 0.020552 0.002502
die 0.064277 0.072853 -0.038580 0.032063 0.001552 -0.048908 -0.077664 0.001214 0.001984 -0.078660 0.000347 0.056951 0.016646 -0.038015 0.015477 -0.022893 -0.038147 0.002867 -0.058069 0.103482 -0.033977 0.037516 0.016777 0.085528 0.028170 0.012141 -0.030806 0.004568 0.015583 0.013267 0.060763 0.019551 -0.018411 0.120695 0.033241 -0.050720 0.047348 -0.023184 -0.009669 -0.065117 -0.074292 -0.003056 -0.099036 -0.126899 -0.111245 -0.071751 0.110746 -0.093786 0.018553 0.024123 -0.031092 0.012944 -0.010788 -0.057655 0.022423 0.081178 -0.051458 0.040162 0.090416 -0.051264 0.037070 -0.058534 -0.040210 -0.033437 0.082139 0.017811 -0.056826 0.002180 0.141289 -0.082415 -0.097101 0.034496 0.104335 0.014581 0.002467 -0.027681 0.078855 -0.051205 0.125076 -0.004498 -0.038884 -0.010971 0.012638 0.112711 0.002792 -0.032977 0.033409 -0.050478 -0.044485 0.006181 -0.039180 -0.048036 -0.036336 -0.068470 0.042170 -0.080800 -0.090533 -0.061774 0.025932 0.115706 -0.008000 0.005083 -0.009953 -0.016015 0.074742 0.018082 0.019528 -0.098641 -0.024375 -0.043077 -0.013762 0.052186 -0.019431 -0.019879 -0.020149 0.009322 0.011883 -0.077832 -0.075893 -0.004307 0.031340 -0.043034 -0.000052 0.017208 -0.028991 -0.016485 -0.079131 0.117174 0.047062 0.047125 -0.023324 0.034433 -0.060023 0.110700 0.071413 0.015468 -0.012464 0.001619 -0.021939 -0.036420 0.117513 0.127986 0.104729 -0.007870 -0.007452 -0.014601 0.034761 -0.044352 0.042682 0.099479 -0.006392 0.007652 0.080049 -0.039369 0.067755 -0.016053 -0.060474 -0.025893 -0.049887 0.048985 0.032975 -0.060449 -0.036311 0.006827 -0.029953 -0.042809 0.021990 -0.044238 0.039675 0.012816 0.011984 0.043091 -0.004533 0.009705 0.059130 -0.043012 -0.037549 0.016017 -0.100673 -0.107310 -0.043744 0.045070 0.069986 0.038017 0.002736 0.095671 0.093848 0.035612 0.027950 -0.001371 0.090964 0.104810 -0.098596 -0.049757 -0.013261 0.023362 0.078898 0.064522 0.037594 0.131914 -0.074689 -0.039043 -0.066395 -0.095079 0.034591 -0.040876 -0.077119 0.061504 -0.047351 -0.038810 -0.055161 0.018525 -0.047808 0.016990 -0.007344 0.030308 0.010754 -0.065235 0.039786 0.132575 0.024858 0.032307 0.075723 0.008982 0.074048 -0.039853 0.071965 0.078797 0.015446 -0.006899 0.016917 0.000821 0.007138 -0.035222 -0.074431 -0.048685 0.007835 -0.056862 0.069014 -0.042071 0.079070 -0.008450 0.006547 -0.092947 -0.047613 -0.014712 0.022400 0.014212 -0.030284 0.096763 -0.018398 -0.043809 0.002776 0.025432 -0.028470 -0.083683 0.015487 0.051354 0.068117 0.045910 0.010026 -0.075168 -0.067792 -0.027468 -0.082533 0.019395 -0.059545 -0.036727 0.033227 0.001584 0.055303 -0.036282 -0.021568 -0.007487 -0.074193 -0.008091 0.049001 -0.011967 -0.065181 0.044536 -0.023727 -0.064312 0.002943 -0.095785 0.032217 -0.101801 0.023443 -0.076798 0.077877 -0.037062 -0.132504 -0.056225 0.083098 -0.007472 -0.098801 0.123637 0.078755 -0.030761 -0.102518 0.030367 -0.060109 0.092649 0.040973 -0.040847 -0.010985 -0.020109 0.021617 -0.017809 0.092317 -0.038376 0.048562 -0.038460 0.011881 0.017481 0.015476 0.037525 0.028394 0.001061 -0.020722 0.052498
was 0.038093 -0.039464 0.029061 -0.051478 0.110899 0.003998 -0.062974 -0.033151 -0.020823 0.017544 0.036387 -0.013594 0.007748 -0.024839 -0.094822 0.056515 -0.048096 0.009109 0.066087 0.057874 0.016565 0.089174 -0.046786 0.035697 0.062277 -0.069127 0.011655 -0.044500 -0.083600 0.093735 -0.093498 0.120908 -0.073696 -0.001558 -0.013131 -0.024327 0.109175 -0.059848 -0.044490 0.048986 -0.000409 0.017629 -0.018492 -0.020117 -0.126541 -0.017252 0.079147 -0.040564 -0.032940 0.026210 -0.062477 0.005762 0.073036 -0.044886 -0.015331 0.029168 -0.102975 -0.093918 -0.020016 0.021763 0.025401 0.031641 0.058130 0.106984 0.044707 0.022827 0.148625 0.000259 -0.015519 -0.087245 0.018621 -0.071500 0.100069 0.059515 -0.049702 0.008695 -0.086521 0.081901 0.035514 0.067283 0.006228 0.003194 0.006328 0.086035 -0.004994 -0.049554 -0.005892 0.027510 0.032326 0.023859 -0.047965 0.084295 -0.026587 0.040763 -0.024247 -0.069867 -0.011988 -0.129401 0.065945 -0.092586 0.075107 -0.063505 0.050218 0.019644 -0.016599 -0.006044 0.021917 0.004498 -0.031899 0.103711 -0.079390 0.010902 -0.020361 0.013816 0.000652 0.062505 0.030729 -0.024254 -0.048219 -0.067202 -0.032585 0.010041 0.049056 -0.015067 0.019146 0.057174 0.031376 0.029713 0.056592 0.049990 -0.054507 0.039714 0.049046 -0.095183 -0.035517 0.024203 -0.035465 0.056749 -0.048065 -0.056140 0.033088 0.037367 -0.003347 0.000041 0.030588 -0.040393 0.094374 -0.011383 0.109677 0.068493 -0.034629 -0.006020 -0.007471 0.044000 -0.017521 0.062509 0.059312 -0.009521 -0.036335 0.025308 -0.053681 -0.000937 0.043521 0.052436 -0.063910 -0.009408 -0.002976 -0.031768 0.041121 -0.005461 0.055197 0.054599 -0.010309 0.048079 0.030886 0.105654 -0.074140 0.027782 -0.029649 -0.014858 -0.093027 0.146082 -0.010484 -0.069034 0.020136 -0.035309 0.070832 -0.064175 0.129447 -0.022570 -0.089496 -0.033427 0.040620 -0.064147 -0.019296 -0.102871 0.004941 0.065974 -0.024179 0.016505 -0.030662 0.121204 -0.102500 0.000282 0.022941 0.080980 0.025089 -0.001682 -0.040991 0.074999 -0.111666 0.023247 0.048019 -0.052465 0.060723 0.002261 -0.052007 0.050539 -0.058839 0.060744 0.037957 -0.006535 -0.020055 0.107604 0.031723 -0.018713 0.065597 -0.071850 -0.051743 -0.002814 0.092270 0.012219 -0.019412 -0.012390 -0.099500 -0.042110 -0.006781 0.021898 -0.029024 -0.033140 -0.028469 -0.004133 0.022608 -0.080509 -0.119657 -0.010072 0.037585 -0.068092 -0.044766 0.032499 0.081647 -0.055687 -0.067403 -0.025441 -0.030464 -0.009859 -0.061485 0.021361 -0.050099 0.041033 0.022533 0.043166 0.001158 0.038825 -0.000031 0.027035 -0.046836 -0.155611 0.079754 -0.069133 0.011333 0.024423 -0.045120 0.030053 0.051027 0.020264 -0.137361 -0.110488 -0.007641 -0.024307 -0.005992 -0.020304 0.089876 0.055957 0.049278 -0.035511 -0.005174 0.063410 0.048785 0.036353 -0.055200 0.021095 -0.129803 -0.009219 -0.020619 -0.010793 -0.014032 0.009585 -0.071230 -0.054573 0.012530 0.105540 0.027460 0.055762 0.009399 -0.005405 -0.032325 -0.059447 0.077964 -0.030809 0.037159 -0.010278 -0.050976 0.007793 0.016604 0.041652 -0.056789 0.010582 -0.146278 0.118183
als -0.048390 -0.006001 0.087158 0.097384 0.034841 0.031073 -0.048692 -0.021256 -0.006047 -0.010010 -0.095212 -0.018272 0.051833 -0.049689 -0.099063 -0.018026 -0.095254 0.009732 0.053028 0.089285 -0.003852 0.054700 -0.055576 0.004553 -0.000132 -0.009942 0.055747 0.051551 0.026825 0.024581 0.010511 0.083613 -0.022857 0.023829 0.016377 0.000188 0.012853 -0.047926 0.048523 0.004099 -0.020611 -0.032468 -0.075796 -0.039658 0.030858 -0.100890 -0.016606 -0.032726 0.068776 0.042807 0.015927 0.051134 0.063567 -0.006005 0.061305 0.099386 -0.022040 0.006543 -0.086846 0.073527 0.021339 0.016259 -0.035897 -0.006976 0.060437 0.004844 0.085997 0.038307 0.129284 -0.022571 0.000931 -0.003617 -0.032136 0.094905 -0.035706 0.003184 -0.000253 0.059562 0.086943 0.006139 0.029072 0.014265 0.015353 0.032379 -0.005547 -0.017038 -0.025380 -0.009951 -0.069174 -0.045733 -0.072961 0.059021 -0.038990 -0.041899 0.063587 0.065905 -0.047334 -0.071666 0.100346 0.091451 0.059219 0.050493 -0.086528 0.078907 0.074002 0.094602 0.080542 0.040948 -0.005138 -0.045691 -0.060452 -0.003172 -0.051698 -0.010659 0.056019 0.018997 0.070881 -0.137518 0.041781 0.006698 -0.017400 -0.057820 0.048846 0.038443 0.021070 0.061915 -0.025447 0.051462 -0.013086 0.022419 -0.035938 0.000663 -0.100759 -0.107535 0.024092 0.046242 0.070142 0.059361 -0.033290 0.020373 0.063944 0.006483 0.154901 -0.069617 -0.065432 0.054743 0.084747 -0.075912 -0.060976 -0.026621 -0.016273 -0.071631 0.104321 -0.019782 0.054998 0.107967 -0.021763 -0.146815 -0.025133 0.041518 -0.129688 0.025046 0.075638 -0.041355 -0.073910 -0.046577 -0.089568 0.098230 0.012188 0.025805 0.061718 -0.025243 0.035271 0.042075 -0.016160 -0.031858 -0.014168 0.005819 0.004227 -0.018403 -0.066991 0.031787 0.102558 0.026107 0.015074 0.022654 -0.069352 0.011769 0.085384 -0.004562 -0.035432 0.041968 0.054017 0.023013 -0.048877 -0.030071 -0.021489 0.095791 0.046911 0.092444 -0.062633 0.018580 -0.106393 -0.016160 -0.003525 -0.019107 0.024409 0.039845 0.064293 0.017707 -0.092776 -0.059800 -0.008970 -0.031774 0.046032 0.026199 -0.005866 0.066832 -0.007883 0.097170 -0.009735 -0.043198 -0.019965 0.108974 0.083799 0.017498 0.017080 0.119767 0.064540 -0.031346 0.001876 0.012279 -0.050688 -0.042063 0.059256 -0.038235 -0.020414 0.105508 0.020124 0.012725 -0.013408 0.035812 0.032538 -0.038717 -0.111760 0.054804 0.007292 -0.021587 -0.041610 0.125819 0.080839 0.052521 -0.022513 0.029702 -0.059443 0.033166 -0.023113 -0.040753 0.087446 -0.030369 0.112255 0.014952 -0.105032 -0.091088 -0.047528 -0.009175 0.086557 -0.037003 -0.050957 -0.039646 0.070944 -0.115151 0.031614 -0.058838 0.044543 -0.012306 -0.107704 -0.045595 -0.077544 0.022566 0.010529 0.013929 0.003197 -0.058468 0.003469 -0.021450 0.027353 -0.051817 0.048480 0.038279 -0.095002 0.033524 -0.032388 0.005536 -0.030831 0.041034 0.029902 -0.119589 -0.055935 -0.039516 -0.072994 0.052818 0.102836 -0.000402 0.040240 0.032683 -0.029888 -0.092462 0.013698 0.035204 0.066728 -0.013291 -0.045205 0.024120 0.007312 -0.021833 -0.009809 -0.047907 -0.063942 0.049111
dat 0.146061 0.011941 -0.053627 0.067472 -0.045963 0.015904 -0.024635 0.036304 0.020475 -0.113043 0.029099 0.091002 -0.031309 -0.041882 0.046005 -0.045898 -0.021420 -0.014367 0.045477 0.014819 0.012509 0.014495 0.035237 -0.022477 -0.086852 -0.002331 0.018511 -0.030781 0.039922 -0.043386 0.006757 -0.013550 -0.045428 0.126331 0.021439 -0.035255 -0.032034 0.064554 -0.032120 0.028642 -0.090801 -0.009273 -0.044916 -0.065831 0.036653 0.053426 0.052016 -0.063351 -0.064962 -0.067940 0.037968 0.026417 0.061766 -0.049095 0.027575 0.086456 -0.081808 -0.050066 0.078206 -0.068934 0.082685 -0.055175 -0.013308 0.065354 0.010206 -0.012672 0.100375 0.045722 0.044780 0.022423 -0.046007 0.060263 0.010854 0.084079 0.022109 0.037681 0.068433 0.012650 0.125983 -0.105351 0.070470 -0.049896 -0.050908 -0.020636 -0.025581 -0.061164 0.001336 -0.043061 -0.061639 -0.049276 0.018033 0.012142 0.035236 -0.072078 -0.036412 -0.037401 -0.016448 -0.127538 0.012976 -0.003219 0.027815 -0.053293 0.025649 0.007673 0.117354 0.087028 0.086635 -0.092855 -0.042266 0.041046 0.006140 -0.004499 0.064840 -0.033383 -0.074218 -0.000732 0.011439 0.002641 -0.068593 0.056725 0.010503 -0.038346 0.046021 -0.049792 -0.033081 0.004890 -0.143449 0.085868 -0.127126 0.058765 -0.135903 0.017567 -0.010892 0.082677 -0.058723 0.020191 -0.020836 -0.070672 -0.063792 -0.051625 0.070320 0.029357 0.097668 -0.024556 -0.010014 0.015745 0.030340 -0.071283 -0.004944 0.015685 0.030814 -0.016733 0.025300 -0.016701 0.012675 0.087346 0.024298 0.019134 -0.008418 0.022297 0.016935 0.048447 -0.008094 -0.056321 -0.074145 -0.092006 -0.004854 -0.064865 0.017749 -0.001860 0.041192 0.016585 0.035425 -0.010850 -0.020406 -0.018870 -0.034637 0.002064 0.021595 -0.080251 0.035692 -0.022776 0.040232 0.098444 -0.016808 0.031366 0.025236 0.010745 0.042004 -0.027676 -0.034822 0.002417 -0.084015 -0.023501 -0.039199 0.062667 0.053816 0.071591 -0.053411 0.014049 0.006939 0.130907 -0.033686 -0.082737 0.003015 0.007621 0.077542 -0.101727 -0.016343 0.034077 -0.027640 0.086845 -0.038067 -0.038871 -0.052083 -0.049640 -0.009200 -0.017559 0.030539 0.075233 -0.027325 0.117681 0.020208 -0.015445 0.103642 0.024073 -0.064386 -0.037282 0.065070 0.030655 0.051107 -0.029483 -0.015352 -0.098430 0.065974 0.013083 0.006641 0.069049 -0.049820 0.033562 -0.033424 0.028311 -0.099150 -0.089274 -0.028341 -0.022472 -0.016675 -0.058025 -0.005421 0.076829 0.054018 -0.003655 0.044073 -0.061810 -0.040295 -0.038113 0.012711 0.092278 0.108078 0.030449 -0.010286 -0.059212 -0.093080 -0.001228 -0.071942 -0.048324 -0.049370 -0.106615 -0.015781 0.073429 0.021198 0.035292 0.046775 -0.028653 -0.002930 0.003215 -0.021925 0.001543 -0.122929 0.034202 0.019396 -0.015890 -0.012189 -0.037002 0.060603 -0.014270 -0.025006 -0.003999 0.007335 -0.020633 0.052063 0.015068 -0.038756 -0.063352 -0.041717 0.114594 0.072976 -0.049986 0.055879 0.064285 -0.105692 0.176367 -0.020327 0.037884 -0.022059 -0.119735 -0.037252 -0.059731 0.091963 -0.039808 0.070120 -0.020248 0.093123 0.099877 -0.048923 0.098553 -0.019583 0.054149 -0.039154 0.086275
aan 0.004531 0.038894 -0.112695 -0.000028 0.050637 0.034951 -0.120870 0.032203 -0.018595 0.066695 0.044337 0.068774 -0.007185 -0.144490 0.017681 0.068318 -0.069332 -0.080636 0.008428 0.027442 -0.032112 -0.037691 -0.058773 0.024676 0.038433 0.047993 0.059967 0.062118 -0.057032 -0.041521 -0.055958 0.102120 -0.018480 0.091568 -0.047086 0.082182 0.114131 0.111864 -0.021332 0.023261 -0.098500 -0.005782 -0.069281 0.005698 -0.004331 -0.044161 0.111852 -0.064445 0.004309 0.088010 -0.083715 0.082054 -0.047681 -0.001316 -0.069703 0.079759 0.053384 -0.091476 -0.041661 -0.037234 -0.023377 -0.033700 -0.028393 0.001090 0.006762 0.032598 0.059563 -0.069550 -0.020695 0.015889 -0.025312 -0.060294 -0.065516 -0.096616 -0.032203 -0.066423 -0.101194 -0.024496 0.011690 -0.087050 -0.062818 -0.000720 -0.027802 0.016475 -0.026660 -0.039727 0.007437 0.080197 -0.044725 0.002010 -0.067677 -0.058577 0.001954 0.007432 0.058282 -0.040265 -0.032020 -0.012394 0.041566 0.070284 0.040767 -0.024924 -0.088560 -0.030535 0.051014 0.067237 0.008710 0.088531 -0.080447 0.057221 -0.158445 0.032053 0.018612 -0.031265 0.045848 0.051617 -0.080238 0.011957 -0.024481 -0.018024 -0.046990 0.031214 -0.037301 0.023929 -0.044430 -0.113216 0.021837 0.077175 0.014142 0.046955 0.068658 0.002373 -0.128427 0.081754 -0.005516 -0.013515 -0.013290 0.027984 -0.075092 -0.063292 -0.115940 0.022571 -0.022601 0.009273 -0.024573 -0.007511 0.019581 0.011448 -0.063026 -0.031593 0.045338 -0.005675 -0.046978 0.029955 -0.036769 0.003693 -0.078885 0.047701 -0.041017 -0.044866 0.033280 0.073981 -0.007112 0.013103 0.043329 0.040134 0.055173 0.000059 0.044735 0.047132 0.055287 0.047289 -0.041313 -0.051231 -0.021068 -0.047675 0.020513 0.043907 -0.004590 -0.101860 -0.064038 0.008950 0.051893 0.023521 -0.038900 -0.013564 -0.025965 0.008407 -0.018388 -0.062678 -0.016740 0.030232 0.018703 -0.039498 0.096549 -0.012952 0.134911 0.001990 -0.059994 -0.010634 -0.072454 0.019069 0.003701 -0.008342 -0.034689 -0.103917 0.058459 -0.105161 0.046108 -0.022687 -0.081708 -0.019904 -0.009797 -0.002596 -0.066170 0.073796 -0.049685 0.031298 -0.039787 0.023665 -0.020135 -0.049516 0.017212 -0.015813 0.073278 0.006712 -0.022233 -0.008353 -0.160032 0.077203 0.093214 -0.024493 0.096024 -0.000208 0.037529 -0.042047 0.000481 -0.033553 0.058121 -0.060009 0.060609 0.062305 -0.051164 0.142640 -0.006678 -0.104567 -0.089502 0.050203 0.010558 0.021464 0.013235 -0.011143 0.062465 -0.106861 -0.049968 0.017818 0.000275 0.018181 0.140456 -0.039815 0.024000 -0.045991 0.024996 -0.066753 0.048826 -0.105340 0.033512 -0.077607 -0.031784 -0.088238 0.040295 0.083286 -0.006297 0.025709 -0.012630 -0.023692 0.008348 -0.069384 0.004699 0.012630 -0.033341 -0.104797 -0.009499 0.063197 0.134864 -0.027515 0.016539 0.005098 0.047175 -0.014550 -0.048062 -0.057015 0.001728 -0.035152 0.017226 -0.029182 0.077817 -0.024290 0.020759 0.016055 -0.097399 -0.038055 0.098163 0.028274 -0.008616 0.047237 0.011467 -0.057721 -0.019666 0.090295 0.079763 0.038817 0.058016 -0.045910 0.025165 -0.042978 -0.042763 -0.056527 0.000501 0.077014
tot -0.038363 0.033431 0.007545 -0.058055 0.055323 -0.035833 -0.081631 0.067308 -0.027388 0.027887 0.050638 0.187565 -0.008227 -0.036316 -0.031706 0.041182 0.040375 -0.015977 0.078064 -0.001789 0.004518 -0.068971 -0.080717 -0.022917 -0.007625 -0.065703 0.027252 -0.024513 -0.016597 0.027310 0.037348 0.042678 0.035070 0.015893 -0.094385 -0.012091 -0.011851 0.032816 -0.040176 -0.050011 0.022781 -0.089162 -0.009842 0.086586 -0.015573 -0.007696 0.012003 -0.013699 0.006865 -0.070246 0.077788 -0.134527 -0.007490 -0.089409 0.032097 -0.009689 -0.028225 -0.087040 -0.020634 -0.023430 -0.014547 0.019938 -0.035793 0.044916 -0.021030 -0.022111 0.005819 0.001859 -0.018906 -0.008402 -0.054126 -0.087307 0.073204 -0.042606 -0.065525 -0.069997 0.025928 0.034672 0.118304 -0.044243 -0.048584 0.135254 0.086836 0.014624 -0.064611 -0.031158 0.087460 0.033056 0.051738 -0.051625 -0.072176 -0.027240 -0.108516 -0.024427 0.004239 -0.045665 0.088364 0.039767 0.020982 0.067017 -0.005663 -0.029933 0.005920 0.031494 0.001112 0.072171 -0.081820 -0.027401 -0.070351 0.065890 -0.020918 -0.028931 -0.047615 -0.069175 -0.094225 0.018667 0.034314 -0.008400 0.105171 -0.102497 -0.102484 0.019521 0.024211 0.006669 -0.041413 0.137903 0.042705 0.048768 0.000485 -0.030093 -0.112999 -0.021203 -0.130552 0.057956 0.009296 -0.038772 -0.109273 -0.018238 -0.016194 -0.029036 0.059890 -0.024575 0.046020 0.000344 -0.086010 0.026191 0.115760 -0.014945 0.094365 0.049952 -0.088898 -0.114432 -0.019119 0.073330 0.062222 0.048610 0.036367 0.004088 -0.061785 -0.097348 -0.013188 0.001607 0.123588 -0.017572 0.083498 0.001503 0.024774 0.036328 0.009057 -0.039849 -0.029684 0.060647 0.069016 -0.031436 -0.050318 0.020707 -0.063767 -0.009985 0.059385 0.103826 0.031192 0.028967 -0.000963 0.029310 -0.096082 -0.001333 -0.067920 -0.039417 -0.026632 -0.016239 -0.065902 -0.099289 0.096054 0.071117 0.090944 -0.006479 0.010664 0.032924 -0.003546 0.056344 -0.065882 0.046728 -0.140219 -0.038049 -0.030022 -0.049350 0.022437 0.010098 0.157002 0.062285 -0.028379 0.042339 -0.077700 0.003910 -0.005160 -0.007800 -0.003622 0.068261 -0.016014 0.002471 -0.027083 -0.023254 0.046188 -0.056268 -0.005843 -0.009119 0.009349 0.083751 0.055264 0.011441 0.076199 -0.000148 0.022931 -0.074802 -0.055439 -0.024281 -0.011330 0.010824 -0.089865 -0.004506 -0.017326 0.016885 0.015902 -0.031877 -0.079788 -0.055551 0.011000 0.010161 -0.055805 -0.014632 -0.008135 0.068212 0.000529 -0.018051 0.027461 -0.038183 0.027721 0.022422 -0.013373 0.025497 -0.007462 0.056743 0.035621 -0.003993 0.044817 0.022319 -0.069597 -0.031606 0.030557 -0.008818 0.045483 0.016985 -0.008154 0.071280 -0.033309 -0.054829 0.043103 -0.069001 -0.061426 0.024193 0.024088 -0.000630 -0.058454 -0.093966 0.083037 -0.023654 0.084010 -0.018540 0.066773 0.010340 0.078919 -0.069718 0.067387 0.081920 0.014837 0.002264 -0.000481 0.035998 -0.040012 -0.097025 -0.012600 0.014459 0.116953 0.000183 -0.123861 0.019314 -0.007044 0.074995 0.048848 -0.076017 -0.034971 0.002887 -0.188081 0.028208 -0.036344 -0.031775 0.054268 -0.015335 -0.062666 0.064337
ook 0.031821 0.045356 -0.000683 0.026114 0.029977 0.008387 -0.117507 0.035392 -0.014736 -0.035228 0.021153 0.063682 0.113533 -0.087408 0.056037 0.032795 -0.039182 0.065960 -0.083433 0.098751 -0.072178 0.045983 0.048758 -0.068359 0.036409 0.073596 0.052176 0.002862 -0.023156 -0.080429 0.017508 0.146299 -0.081524 0.040648 0.028040 -0.066615 -0.059604 0.021203 -0.031209 0.027427 0.007393 0.103023 -0.041009 0.004421 0.022735 -0.008317 0.091903 0.032786 -0.069805 0.059853 0.135899 0.041699 0.126350 -0.011734 0.098617 0.057410 -0.019379 0.011095 0.014977 -0.015129 -0.028362 -0.021568 -0.045838 0.097422 -0.049105 -0.014429 -0.001398 0.003800 0.074938 -0.014317 -0.059671 0.087853 -0.032348 -0.032823 0.039595 -0.028567 -0.003318 -0.013016 0.127356 -0.089063 -0.011131 0.011386 -0.000469 0.110519 0.019075 -0.013082 0.004594 -0.069661 0.036768 0.041804 0.037777 0.064361 -0.072241 0.028593 0.091778 -0.036389 -0.038019 -0.012337 0.057244 0.094006 -0.022810 0.068803 -0.132679 -0.012396 0.046554 0.030175 0.092390 0.052233 -0.035602 -0.094148 0.032553 -0.064539 0.033063 0.039452 -0.038820 -0.017016 -0.068540 -0.142309 -0.088325 0.019163 -0.003749 -0.003826 0.000595 -0.019910 0.060886 -0.000366 -0.082289 -0.063731 -0.049393 -0.009587 -0.056414 -0.069408 -0.038621 -0.048948 0.093560 0.018779 0.014161 -0.013487 -0.058047 0.108028 0.071694 -0.078974 0.090781 0.024766 0.039760 0.026809 0.062383 -0.102613 -0.021300 0.067962 -0.046066 -0.121783 -0.009225 -0.098404 -0.043239 0.034553 0.075443 0.028480 0.041574 -0.046593 0.043440 0.051330 0.049140 -0.034985 -0.023288 -0.034919 -0.041140 0.022324 -0.033838 -0.012363 -0.017621 -0.011755 -0.040384 -0.060634 0.039139 0.036258 -0.049771 0.004544 -0.013776 -0.065115 -0.087288 -0.032249 0.142464 0.049374 0.058363 0.049422 0.064542 0.007893 0.042620 -0.036212 0.014390 -0.034669 0.041143 -0.056248 0.030022 0.065590 0.050369 0.011020 -0.009484 0.044564 -0.061736 0.053770 0.040141 -0.004946 0.042213 0.018018 -0.027318 0.003188 0.091273 0.098795 0.023427 0.037871 -0.083865 -0.009123 0.091279 -0.010558 -0.047951 -0.050809 -0.063379 0.038697 0.070642 -0.028608 -0.037913 0.009871 -0.028963 0.098837 0.026626 -0.007729 0.016693 -0.003595 0.002832 0.009382 0.000353 -0.017768 0.004551 0.038434 -0.070457 -0.029609 -0.022454 0.068326 0.041012 0.055521 -0.037305 0.121612 -0.024899 0.036053 -0.048382 0.038255 -0.079256 0.140504 -0.008485 0.018404 0.008728 0.004081 -0.049130 -0.048521 -0.022677 0.060007 0.036189 -0.016285 0.103303 0.031461 -0.091760 -0.102064 -0.027323 -0.091218 -0.021286 -0.067504 -0.018392 -0.045888 0.110168 0.000589 0.055796 0.054721 0.015803 0.054073 0.016847 -0.033198 -0.010778 0.008947 -0.013518 0.008970 -0.056815 -0.034256 0.009180 -0.071358 -0.044459 -0.020732 0.027170 0.071140 -0.025181 0.000168 -0.007212 -0.012185 -0.067093 0.114252 -0.005642 -0.051440 -0.014823 0.041480 -0.012682 0.133432 0.123496 0.082437 -0.060393 -0.028913 0.050702 0.025277 0.121184 0.018628 0.009990 0.020969 0.012564 0.059738 -0.051695 -0.025340 0.016465 -0.044903 -0.060671 -0.009381
bij 0.001990 0.010637 0.017428 -0.021189 0.093576 -0.049557 0.014086 0.007797 -0.016431 0.003789 -0.089557 0.067230 0.011309 -0.105485 -0.003552 0.053531 -0.035002 -0.017546 0.024882 -0.015767 -0.098995 -0.030028 0.069088 0.037734 -0.031689 0.011831 -0.043627 0.131319 0.035743 -0.105737 0.023202 0.134332 -0.099098 0.102390 0.030428 -0.043624 0.023252 -0.050186 -0.021903 0.053057 -0.063055 0.007340 -0.014417 0.005500 0.016536 -0.017289 0.018771 -0.035114 0.043441 0.055702 0.059981 0.162837 -0.054235 -0.003935 0.075866 0.024295 -0.034172 -0.085583 -0.021020 0.036672 0.017005 -0.064171 -0.022648 0.045219 -0.046873 0.029013 0.045305 0.105389 -0.023594 -0.010869 -0.034536 -0.056920 -0.065669 -0.026237 0.026716 0.068461 0.046276 0.082681 0.040009 -0.037604 -0.109918 0.074785 0.010394 0.063967 -0.077579 0.062788 -0.014107 0.034187 0.119482 0.121602 -0.074631 -0.037901 0.072247 0.029230 0.065309 -0.088194 0.005179 -0.012868 0.043515 0.005990 0.016533 -0.061577 -0.016167 -0.058705 0.096686 0.008374 0.062885 -0.008921 0.020292 0.043891 -0.051918 0.050843 0.164931 0.055446 0.047917 0.034894 -0.038463 -0.065892 0.020971 -0.038318 -0.066890 -0.053395 -0.043887 0.020600 0.062231 0.049386 -0.002630 0.113689 -0.015291 -0.039986 0.025856 -0.087389 -0.092844 0.047058 -0.015042 -0.056312 0.003245 -0.004809 -0.129492 0.133415 -0.048863 0.114942 -0.057024 -0.043058 0.090619 -0.041228 -0.039276 0.007797 0.033013 -0.073125 0.030863 -0.036286 -0.006711 -0.017188 -0.094226 0.176051 -0.055968 -0.027151 0.017942 -0.012348 -0.032299 0.005358 -0.027484 -0.003157 0.005224 -0.000226 -0.059199 -0.022985 0.044101 -0.015339 0.030511 -0.001638 -0.106248 -0.036576 -0.066695 0.037866 -0.034170 0.028608 -0.045287 0.064540 -0.038340 0.056969 -0.060038 0.103193 0.017627 -0.021875 -0.007770 0.109747 0.003231 -0.013949 -0.002533 -0.014974 0.060054 0.005680 0.003365 -0.046299 0.022912 0.005561 -0.039659 0.041671 -0.056464 0.077949 -0.083907 -0.029431 -0.016255 0.005504 0.100211 -0.060737 0.103501 -0.112686 -0.044489 0.023822 -0.080076 -0.027601 -0.087688 0.020619 0.022842 0.033681 -0.038393 0.087583 -0.000634 -0.010419 -0.049003 -0.018322 0.091105 -0.008339 0.005725 0.027685 0.058641 -0.072778 -0.023380 -0.033828 0.016078 -0.012947 -0.035902 0.039911 -0.026978 -0.004313 0.009386 0.005410 -0.011910 -0.012415 0.075327 0.029455 0.014861 0.008681 -0.003085 0.026348 -0.024284 0.007455 -0.063855 -0.092306 -0.090526 -0.031419 -0.130206 0.020319 -0.012502 -0.011220 -0.004840 0.018582 0.052824 0.023458 -0.028544 0.003785 0.028986 0.101757 0.084561 -0.019978 0.034269 -0.012845 0.081551 -0.051660 -0.066799 -0.068769 -0.027658 -0.065062 0.052055 -0.023176 -0.099216 0.082862 0.070102 -0.028082 -0.096913 -0.038913 0.095208 -0.056073 0.004290 -0.004508 -0.140082 0.009223 0.019117 -0.008163 -0.004366 0.137664 0.025003 0.137400 -0.003134 -0.031300 -0.020609 -0.022415 -0.020841 0.022173 0.023616 -0.035838 0.032107 -0.061895 -0.012235 -0.032313 0.079509 -0.014144 -0.026037 -0.006057 -0.061971 0.001795 0.006042 0.015910 -0.020630 -0.041162 -0.006954 -0.016489
deze 0.015055 0.112131 -0.020819 -0.107503 0.023825 -0.045091 0.020099 0.022541 -0.082991 -0.096462 0.031237 0.075443 -0.059063 -0.034790 0.009701 -0.006059 -0.019059 0.064451 -0.046743 0.087956 0.037851 -0.021987 0.004562 0.036383 -0.023590 0.059371 -0.108944 0.074592 0.059783 -0.021999 0.120280 -0.041870 0.046026 0.084508 0.059257 -0.012155 -0.042678 0.053179 0.006583 -0.110989 0.026698 0.028411 0.057608 -0.015025 -0.034906 0.012463 0.083521 -0.018027 0.005300 0.087419 0.035463 0.065643 -0.070126 0.005259 0.058208 0.019180 -0.043701 0.148379 -0.010848 -0.089478 0.049123 0.005028 0.009375 -0.098586 -0.052947 -0.070575 -0.077589 0.039345 0.081405 -0.038609 -0.136182 0.045564 0.023806 0.051905 0.056763 0.073604 0.090063 -0.053520 0.159298 -0.053619 -0.078278 -0.021713 0.009904 0.000193 0.000006 -0.031492 0.079403 -0.081159 -0.005491 -0.074528 0.051600 -0.047976 -0.033124 -0.032972 0.031316 0.016762 0.019444 0.000514 0.113533 0.005793 0.034266 0.026316 -0.042732 0.044497 -0.125821 0.069784 -0.038519 0.011413 0.044333 -0.120399 -0.010873 -0.088035 -0.006598 -0.010782 -0.034568 0.049002 0.093079 -0.037073 0.043766 0.053419 0.072634 -0.061558 0.031017 0.021496 0.035162 -0.026612 -0.011828 0.057441 0.003357 0.054823 0.033293 0.012799 -0.048559 0.047383 -0.020238 -0.027437 -0.086735 -0.016411 0.018020 -0.091101 0.060746 0.027381 -0.034705 -0.013410 -0.082994 -0.030221 0.018107 -0.044774 -0.065801 0.082316 0.011099 0.039314 0.060093 0.049663 0.021332 -0.073759 0.045279 -0.012605 -0.048016 0.116442 -0.010254 0.035938 0.063372 0.089217 -0.013365 0.094048 -0.037586 -0.073097 -0.024396 0.022428 0.003297 0.052133 -0.008839 0.001022 0.077501 -0.051042 0.099832 0.066154 -0.035021 -0.010112 -0.034319 0.062255 0.115634 0.069748 -0.012828 -0.018633 0.027736 0.014883 0.017892 -0.027022 -0.011793 0.062989 -0.057357 -0.069632 0.026901 0.032924 0.011627 0.012262 0.056032 0.118437 -0.036982 -0.031987 -0.007176 -0.135504 0.080852 0.007109 0.029511 -0.064397 -0.044089 0.010814 -0.002572 -0.002122 0.060716 -0.026536 -0.045863 0.002859 -0.073200 -0.034904 0.108450 0.119563 0.018055 0.021455 0.049386 -0.056742 -0.025393 0.031773 0.037556 0.050320 0.033120 -0.096105 -0.001540 -0.016437 0.035533 -0.047863 -0.075634 -0.035060 0.064677 -0.059435 0.067450 -0.045602 0.032349 0.139841 -0.053077 -0.042710 0.009890 -0.045866 -0.036188 -0.016357 -0.045498 -0.009408 0.035357 0.022479 0.022651 0.058610 -0.012360 -0.034475 -0.052115 -0.065159 -0.059584 -0.087511 0.028894 -0.077673 -0.011532 -0.035334 -0.048797 -0.049573 -0.177162 0.076495 0.024043 0.010729 0.024869 -0.003880 -0.025195 -0.072976 -0.036211 0.052166 0.088731 -0.008037 -0.028294 -0.104001 -0.079740 -0.003803 0.002888 -0.066354 -0.022836 -0.066395 -0.003076 -0.070521 -0.043071 0.002516 -0.038420 0.064470 0.044998 0.024387 -0.067834 0.017972 0.018522 0.003944 -0.077666 0.033233 0.043717 0.001315 0.015511 -0.035451 0.085592 0.019767 0.029943 0.097258 -0.004078 0.028468 0.037552 -0.068328 0.086513 0.002933 0.030743 0.027638 0.066784 0.004857 0.007827 0.027442
er 0.030842 -0.011430 0.017848 -0.012847 0.000025 -0.107117 -0.098004 0.105539 -0.006047 0.012024 -0.049081 -0.007039 -0.000292 -0.114718 0.102665 -0.103912 0.079153 0.025028 0.037765 0.090207 -0.047417 -0.092597 -0.037134 0.027543 -0.011393 0.099630 0.048970 -0.086707 -0.074045 -0.111616 -0.019818 -0.028741 -0.108182 0.024225 0.045149 0.059402 0.039355 0.007381 0.108663 0.045461 -0.013806 0.063559 -0.007782 -0.051479 0.009360 -0.003761 -0.054672 -0.030679 0.054183 0.014616 0.004975 0.084785 -0.068491 0.010564 0.056656 0.143254 0.064846 0.075664 -0.001543 0.071259 -0.058671 0.009637 0.127789 0.020635 0.058339 -0.041650 0.000602 0.010803 0.056626 0.075326 0.035661 -0.005174 -0.079569 -0.004093 0.005512 0.020649 -0.021284 -0.031525 0.151041 -0.032958 -0.014429 0.009895 -0.023882 0.053141 0.006446 -0.030096 -0.005060 -0.026814 0.123370 0.068964 0.021855 -0.030600 -0.040590 -0.016012 0.004322 -0.004893 0.031950 0.075811 -0.048143 0.063221 0.006743 -0.069246 -0.007616 -0.047085 -0.015067 0.064472 -0.017391 -0.013245 -0.052793 -0.090819 0.107851 -0.103549 0.036489 0.038104 -0.050478 0.094297 0.033559 0.029110 -0.014486 0.106079 0.014973 0.025142 -0.033027 -0.049457 0.034559 0.038087 -0.060589 0.054215 -0.132211 0.061515 -0.053287 0.004749 -0.062496 0.057472 0.121101 -0.103444 -0.044088 -0.017664 -0.064427 -0.071898 0.004651 0.054652 0.066902 0.034168 -0.036608 -0.024060 0.031691 0.005991 0.062660 0.052352 -0.012377 -0.029211 -0.060685 0.010475 -0.048435 -0.050729 -0.049074 0.109942 0.024643 0.045217 0.030016 0.086615 0.067635 0.060541 -0.021437 -0.002773 0.000348 -0.021208 -0.009887 -0.009567 -0.006696 -0.017635 0.009264 -0.023553 0.087710 0.039312 0.017349 -0.040418 -0.037587 -0.011301 -0.056941 -0.030981 0.014694 -0.005656 -0.036703 -0.005463 0.087378 0.063916 0.025844 0.078648 0.006687 0.067871 -0.012270 0.014048 -0.019414 0.119309 0.021906 0.098766 -0.086156 0.099639 -0.061148 -0.048450 0.037183 -0.040866 -0.088881 0.060978 0.000921 -0.070286 0.011885 0.055583 0.013903 0.115027 -0.069216 -0.041215 -0.029249 -0.124226 0.023428 -0.041332 -0.076095 0.036215 0.009211 -0.082751 0.023541 0.012705 0.038137 0.084596 0.017740 0.098282 -0.082761 -0.007451 0.045269 0.019365 0.047901 -0.018099 -0.089184 -0.094133 -0.042021 -0.000376 0.027981 0.099385 -0.009415 -0.009460 -0.016766 0.031594 -0.013186 0.008876 0.013652 -0.022899 -0.024482 0.062308 -0.044707 0.030880 0.021151 0.007956 -0.000190 0.036880 0.012812 0.019731 -0.025821 0.014939 0.090080 -0.097730 0.005604 0.050825 0.048195 -0.033955 -0.039460 0.012914 0.056050 0.065664 -0.023061 -0.048719 -0.111144 -0.040473 0.020427 0.005184 0.002169 0.043655 -0.038984 -0.058305 -0.018273 -0.003251 -0.000183 -0.080583 -0.013933 -0.127059 -0.017701 -0.013312 -0.080176 0.047663 0.012341 0.088844 -0.084924 0.013338 -0.050443 0.025666 0.064728 -0.015377 -0.077452 0.043231 0.031339 0.040495 0.002474 -0.012381 -0.095630 0.006155 0.063568 0.002035 0.124830 -0.101145 0.096914 -0.014109 0.110472 0.018209 0.000679 0.032511 0.045279 -0.010444 -0.072436 0.039741
naar -0.083487 -0.123527 0.021902 0.039156 0.057348 0.036077 -0.119043 0.047837 0.115428 -0.029487 0.038431 0.025651 0.022323 -0.038188 0.029932 0.069571 -0.060808 0.083343 0.010549 0.039940 -0.057299 0.066940 0.042951 -0.060341 -0.020111 -0.005368 0.061561 0.051987 -0.092909 0.001393 0.059090 0.073982 0.008855 0.018480 -0.003767 -0.032231 -0.010411 0.030627 -0.064315 0.001301 0.007636 0.048317 0.136527 0.031513 0.033632 0.024879 0.093770 0.023442 0.040174 0.001179 -0.015328 -0.013495 0.078275 -0.004274 0.012972 0.056253 -0.032391 -0.081104 0.078049 0.055235 -0.013652 -0.023963 -0.069558 -0.058133 -0.016633 0.023764 0.040208 -0.014782 0.006006 0.001804 0.068006 -0.022864 0.085599 -0.080792 -0.054257 -0.083653 -0.018843 0.117936 -0.000680 0.055092 -0.026525 -0.024700 -0.013990 -0.001711 0.009760 -0.106356 -0.078796 -0.012908 0.131457 0.076375 -0.016482 -0.002891 -0.019977 -0.054900 0.085433 -0.123337 -0.050271 -0.010636 -0.076375 -0.005400 -0.040479 0.004658 0.069580 0.103708 0.080674 0.021046 0.018316 -0.001367 0.027062 -0.015603 0.050797 0.043864 -0.043547 -0.102637 0.038141 0.011228 -0.144891 0.079471 0.061855 0.042162 0.025813 0.054612 -0.037898 -0.061756 -0.013905 -0.013503 -0.117353 0.058617 0.018304 0.001032 -0.045496 0.024115 -0.132995 0.078564 0.048033 -0.006568 -0.021160 -0.000199 -0.069155 0.078256 -0.042417 -0.022216 0.087293 0.015725 0.034105 -0.045475 0.088656 0.016845 -0.052554 -0.058020 -0.034748 -0.023654 -0.051979 -0.044008 -0.023580 -0.016518 -0.039588 0.032670 0.047034 0.037296 -0.011082 0.111444 -0.033618 -0.016923 0.013246 0.129078 0.033873 0.130436 0.012953 -0.032792 -0.060578 0.091933 -0.083248 -0.115507 0.059052 -0.041887 -0.031647 0.105345 0.068213 0.060681 0.031259 0.053070 0.080020 -0.072531 -0.150030 -0.032581 -0.052139 0.021691 0.043165 -0.015651 0.023560 -0.036147 0.012939 0.030713 -0.021323 -0.069260 0.044165 0.048213 -0.094183 -0.079045 0.024635 0.001229 0.026809 -0.004544 -0.070626 0.024688 0.060082 -0.017908 -0.040041 0.162573 -0.020464 -0.006308 0.082283 -0.032468 -0.057898 0.031433 -0.031964 0.036292 0.084898 0.118508 -0.006054 0.063580 -0.054082 -0.051751 0.016097 0.024268 -0.065176 -0.054620 -0.077807 -0.068996 0.061143 -0.041223 0.000438 -0.012497 0.036896 -0.018575 0.046710 -0.010741 0.041437 -0.002193 0.020746 0.017322 0.018105 -0.005347 0.070821 -0.048401 0.004217 -0.007099 -0.021081 0.094049 -0.038628 -0.052661 -0.032182 -0.021606 0.007740 -0.022584 -0.081722 0.028820 0.063576 -0.005456 0.057499 0.000394 0.045509 0.027968 -0.027851 -0.002631 0.001632 -0.009434 -0.021978 -0.083217 0.071072 0.052347 -0.035007 -0.020096 0.013415 -0.039030 -0.025955 -0.067492 0.039919 0.068447 0.036309 -0.020912 -0.041006 -0.023334 0.000816 0.066788 0.117187 -0.047152 -0.075961 -0.023785 0.091592 0.058888 0.051679 0.096564 -0.012953 0.150674 0.069500 -0.056924 -0.054622 -0.056470 -0.041954 -0.021652 0.081365 -0.016264 0.028568 0.007652 -0.023997 -0.008868 -0.025962 -0.033518 0.072185 0.090686 -0.010261 0.030576 0.006366 0.022915 0.038538 -0.044093 -0.037706 0.016687
om 0.122287 -0.049782 0.055384 -0.062836 0.030486 -0.104663 -0.036312 -0.003571 -0.035170 -0.051946 0.101778 0.063990 0.055118 0.046670 0.028221 0.038258 -0.051211 -0.044904 -0.006158 0.035865 -0.022323 0.039698 0.007025 0.015805 -0.009624 0.061568 0.160028 0.038530 0.084679 -0.087823 0.064080 0.090498 -0.013749 0.007418 0.122411 0.076700 0.088566 0.021345 -0.077825 0.042570 -0.067597 -0.002464 -0.030828 -0.116206 0.017851 0.023775 0.076445 -0.029759 0.129605 -0.004670 -0.050006 -0.005916 -0.018968 0.055417 0.012644 0.004194 -0.012190 0.018589 0.044746 0.010293 -0.009058 -0.069441 -0.028443 -0.001726 0.033725 0.051930 -0.067960 0.065047 -0.074726 0.034423 -0.040541 -0.089904 -0.034053 0.002585 -0.101390 0.031549 -0.004684 0.030407 0.130975 0.070159 -0.011707 0.092431 0.036767 0.026240 0.032523 0.001372 -0.049340 0.056482 0.040690 0.091735 -0.074006 -0.015448 -0.004622 0.027820 -0.033554 -0.008642 -0.058433 -0.054189 -0.053592 0.016551 -0.049099 0.024933 -0.023757 0.039099 -0.009328 0.044997 -0.015553 -0.057293 0.013987 0.001007 -0.055508 -0.022427 -0.082361 -0.043885 0.117065 -0.052136 0.006292 -0.053408 -0.030820 -0.028045 -0.093120 0.022424 0.023797 -0.070960 -0.002174 -0.080034 -0.170759 0.045176 -0.128706 -0.026211 -0.083758 0.038808 -0.063779 -0.049104 0.032899 0.048208 -0.020539 0.010410 -0.125119 0.012032 -0.048613 -0.022421 0.067248 0.037374 -0.113454 0.044860 -0.015997 0.070602 0.065939 0.022585 -0.015760 0.041426 0.044230 0.004016 0.065203 -0.013637 -0.052879 -0.028829 0.011405 0.072227 0.119758 -0.059394 0.002523 -0.047234 -0.026753 -0.007045 -0.015585 0.016116 0.081974 0.022867 0.002666 0.007046 -0.004923 -0.070841 0.026758 -0.015809 0.053530 0.075974 0.047906 0.042506 -0.024003 0.045460 -0.015058 0.063957 -0.054960 0.054531 0.047763 -0.030724 -0.038805 0.045770 -0.067183 -0.024105 0.043016 0.014534 -0.091732 0.036349 0.055415 0.053859 -0.053671 0.052346 -0.032836 0.097356 -0.037634 -0.000096 0.079331 -0.019592 0.034664 -0.053836 0.042467 0.032896 0.001874 -0.007654 0.107165 -0.034484 0.088008 0.048244 -0.053859 0.028709 -0.007272 0.092260 0.083814 0.039090 0.002425 0.005384 0.132974 0.030717 -0.026017 0.013132 -0.077027 0.103948 -0.014314 0.008101 0.056283 0.060578 0.097072 -0.038706 0.075316 0.054276 0.091018 -0.049252 -0.016572 0.072995 -0.044437 -0.023960 0.013757 -0.006966 0.029451 0.036017 -0.005808 0.102208 -0.040456 0.022575 0.044086 -0.046080 -0.026064 0.028460 0.030705 0.014127 0.015581 -0.083627 0.017435 -0.016575 -0.095992 0.035636 -0.046300 -0.000240 -0.031201 0.004533 0.057059 0.018243 0.037706 0.005953 0.009853 -0.019559 0.014276 -0.005999 0.058449 -0.081226 -0.002336 0.068020 0.000638 -0.120456 -0.021713 -0.042528 -0.081860 -0.121213 0.039876 0.019428 -0.071346 -0.070824 -0.113210 0.037977 0.036875 0.037509 -0.056091 0.098273 -0.020571 -0.085028 -0.042017 0.022271 -0.036297 0.002895 -0.033363 0.023004 -0.077084 -0.073592 -0.004745 0.017190 0.047930 0.011148 0.122703 0.046272 -0.031509 0.104163 0.050636 0.006872 0.049988 0.108415 -0.047065 -0.012726
wordt 0.002114 0.036246 -0.071094 -0.020123 0.109613 -0.134536 -0.001564 -0.039592 -0.043682 -0.042970 -0.026477 -0.002807 0.174780 0.046191 0.054636 -0.098733 0.032497 0.004211 -0.058601 -0.037011 -0.049243 0.027842 -0.003554 -0.067381 -0.111888 0.054559 -0.020948 -0.061402 0.110722 0.017014 0.042777 -0.011344 -0.005405 0.055527 -0.005827 0.007672 0.045765 -0.072213 0.030582 -0.015829 -0.010621 0.071152 -0.074917 -0.045705 0.088737 -0.102958 0.076896 0.071547 -0.052828 -0.123179 0.039510 -0.024458 0.054466 -0.053236 -0.028100 0.012964 -0.003128 -0.076592 -0.052994 0.004652 -0.008436 0.063950 -0.003029 -0.068907 0.040042 -0.021780 0.030614 -0.096769 0.048879 0.023158 -0.027820 0.020742 0.072831 0.007123 0.014502 0.016330 0.009794 0.061277 0.053577 -0.041750 0.058554 -0.075406 0.039528 0.015478 -0.078029 -0.091271 -0.034449 -0.002649 -0.007614 0.016465 -0.049694 -0.119323 -0.075463 -0.034102 0.056874 -0.020919 0.040958 -0.133989 -0.041212 0.028031 -0.000564 -0.004525 -0.090251 0.024567 -0.028914 0.089547 -0.029290 -0.070184 -0.095842 -0.025691 0.015466 -0.091172 0.016972 -0.023636 -0.025537 -0.037673 0.023068 0.062525 -0.059327 -0.054274 0.009094 0.063514 0.008825 -0.010669 0.074488 0.012382 -0.076709 0.044353 0.063324 0.029819 0.035249 -0.007691 -0.064982 -0.102243 0.045051 0.010009 -0.073838 -0.004766 -0.058720 0.011064 -0.007106 -0.021607 -0.016246 0.062087 -0.046544 0.119050 -0.027711 -0.021383 -0.002962 0.017288 -0.044823 0.007863 -0.015018 -0.035937 -0.121931 0.078744 0.009418 -0.079938 0.016273 -0.036515 0.107178 0.021175 0.123553 0.061568 -0.024232 -0.040236 -0.096597 0.085694 0.057548 0.035447 0.022559 -0.005318 -0.067270 -0.030219 0.053227 0.099692 0.059908 -0.046057 0.060123 -0.089978 -0.006326 -0.063346 0.027950 0.026435 -0.062241 0.042091 0.022462 -0.067309 0.025484 0.015414 -0.031041 0.004532 -0.042192 0.000109 -0.033291 -0.021715 0.044571 -0.020728 0.082799 0.000399 -0.043243 0.048201 0.067095 -0.060515 -0.034112 0.127210 0.134591 0.066299 -0.016758 0.022559 0.029971 -0.015421 0.033513 0.020838 -0.096292 -0.068690 -0.007642 -0.017600 -0.039744 -0.025921 -0.000879 -0.021182 -0.021905 -0.028839 -0.031346 0.057917 0.046021 -0.012950 0.025136 0.008418 -0.008289 -0.025041 -0.044804 0.068666 -0.033552 0.006071 -0.094910 -0.005163 -0.055419 -0.077053 0.085924 0.063916 0.027427 0.009091 -0.036478 -0.009967 -0.023838 -0.018794 -0.016398 0.033589 0.054987 -0.026017 -0.029683 -0.063499 0.007965 -0.070700 -0.104909 -0.000300 0.037853 -0.069557 0.080241 0.042650 0.046820 -0.029175 0.018700 -0.015080 0.079003 -0.028654 0.075729 -0.068317 0.103780 -0.085184 -0.090301 -0.063657 -0.097487 -0.012603 -0.042912 -0.046477 0.036942 0.025263 -0.058750 0.009522 -0.050525 -0.045594 -0.079310 0.003461 -0.003262 0.024003 0.044794 0.043582 -0.034077 0.065839 0.008198 0.001125 -0.065618 -0.035531 0.085784 -0.137333 -0.040535 0.057703 -0.102833 0.086847 -0.056719 0.149417 -0.123215 -0.002638 -0.019068 0.022720 0.004332 -0.008922 0.032644 -0.032884 0.097066 -0.033248 -0.026930 0.020104 0.077988 0.029992 0.047922 -0.040464
of 0.087278 -0.021165 0.027053 -0.043916 -0.046472 -0.147345 -0.030447 0.025461 0.017902 0.008838 0.004278 0.028431 0.012821 0.121987 0.039019 0.084493 -0.044748 0.042568 -0.015264 0.088931 -0.133449 0.026359 0.019594 0.047051 -0.041278 -0.029569 0.014785 0.056574 -0.082037 -0.014474 -0.071973 0.052625 0.083407 0.058043 0.012961 -0.000775 0.097959 0.026666 0.082225 0.030694 -0.036827 0.189471 -0.157570 0.029820 0.050350 -0.006854 0.002588 -0.011564 0.029641 0.029616 -0.008629 -0.033327 0.016625 -0.065703 0.062694 -0.019218 -0.019328 -0.113290 0.032451 0.019115 0.051803 0.037071 0.073141 -0.106431 0.018676 -0.037531 0.023786 -0.018684 -0.006259 0.035713 -0.014201 0.002258 -0.055200 -0.044459 -0.039167 -0.087477 0.061764 0.036088 0.121924 0.025360 0.063000 -0.076994 0.045194 -0.003128 -0.017667 -0.001941 -0.044541 0.026601 0.024457 0.002343 -0.096491 -0.018636 -0.083550 -0.103045 0.021228 -0.056410 -0.054523 -0.003891 -0.017989 0.108285 -0.010054 -0.032660 -0.054852 -0.057130 -0.025815 0.002850 0.051244 -0.008235 -0.002737 0.006273 -0.046696 0.002446 0.006736 -0.010194 -0.034820 -0.010607 0.032492 -0.079084 -0.005055 -0.043648 -0.041749 0.022482 0.048545 -0.022939 -0.085367 -0.019202 -0.093933 -0.043514 -0.041704 -0.087587 -0.009276 0.008990 -0.026951 0.000207 0.039858 0.036283 0.054312 -0.036188 0.038635 -0.013305 0.022902 -0.045349 0.029273 0.028376 -0.069883 0.001198 -0.058331 -0.038945 0.015721 0.070996 0.092466 -0.071965 -0.003501 0.070763 0.057817 0.042839 -0.088260 -0.023602 -0.015254 0.018114 -0.028139 0.001990 0.041583 -0.005828 -0.055576 -0.018194 0.040878 0.085345 0.070431 0.046926 -0.023862 0.033822 -0.105006 0.032105 -0.012713 -0.003855 0.027945 -0.050703 0.028629 -0.047902 0.015736 0.053031 0.071148 0.026818 0.042989 0.169417 0.075406 -0.024979 0.032212 -0.066748 0.015848 -0.055651 -0.010807 -0.059606 -0.085367 0.057348 0.020528 0.011957 0.134005 0.076540 -0.151388 0.030240 0.108537 -0.028137 0.041066 -0.011927 0.059701 0.040893 0.003798 0.057214 -0.003085 -0.093738 -0.134916 0.012630 0.049684 -0.021027 -0.049083 -0.043888 -0.089275 -0.034351 -0.005303 -0.043314 -0.034028 -0.066299 0.040446 0.010537 -0.005955 0.032613 0.008437 -0.018094 -0.001681 0.042777 0.044881 -0.076077 0.072054 -0.110581 -0.007138 -0.060731 -0.049326 0.023251 0.029051 -0.138785 0.070521 -0.036810 -0.078495 -0.063445 -0.007730 -0.058271 -0.011253 -0.043741 0.109769 -0.037526 -0.012794 -0.058676 0.056538 -0.020166 0.021498 -0.055196 0.041048 -0.003506 0.036403 0.069803 -0.013541 -0.023915 -0.056163 -0.092609 0.001704 -0.067292 0.032688 -0.026087 -0.018026 0.010839 -0.046344 -0.056365 -0.138492 -0.027475 0.120542 0.004337 0.007162 0.036654 -0.019435 -0.037063 -0.099495 -0.049509 0.022990 0.056168 0.080463 0.022578 0.050948 0.036406 -0.052165 0.031242 0.062323 -0.051444 -0.032630 0.139130 0.062536 -0.037344 -0.119582 0.029222 -0.082028 0.037643 0.030952 0.028685 -0.031092 -0.010340 0.002535 0.014849 0.098004 0.012744 0.009978 -0.019115 0.027847 -0.024916 -0.057704 -0.014589 0.088159 -0.058804 0.024157 0.037483
niet 0.103285 0.061500 -0.014437 0.047176 0.050623 -0.031558 -0.021284 0.025098 0.039368 -0.017230 0.018473 0.086916 -0.033570 -0.025545 0.052850 -0.112345 0.008597 0.026391 -0.027941 -0.002346 -0.090738 0.035825 0.007662 -0.020384 0.012681 0.082781 0.080936 -0.027434 0.010588 -0.066893 0.009631 0.104563 0.000354 0.201188 0.044445 -0.067863 -0.057000 0.058139 -0.026969 -0.011322 -0.016060 0.029127 0.047065 -0.021619 -0.047476 0.037501 -0.006164 -0.041576 0.052406 -0.017557 -0.006267 0.099812 0.031674 0.096065 0.033174 -0.032426 -0.001999 0.070053 0.047082 -0.008415 0.067106 -0.069588 0.004808 0.076002 0.060690 0.036384 0.073406 0.075977 0.002160 0.017323 -0.088098 0.115051 -0.076135 0.053672 0.040133 -0.015768 0.018725 0.019600 0.110221 -0.024090 -0.019091 0.070437 -0.006056 -0.046854 -0.010695 -0.109894 -0.054261 -0.031656 0.065151 0.077547 0.002823 0.045303 0.027456 -0.039359 -0.037922 0.101347 -0.041122 -0.060273 -0.026904 0.068444 -0.073117 -0.067415 -0.034522 0.086059 0.034978 0.046688 0.029027 -0.017850 0.043850 -0.016900 -0.020904 -0.030355 -0.071250 -0.007772 -0.054871 0.062953 -0.022851 0.003380 -0.018457 0.038361 -0.006339 0.044427 0.010292 -0.060083 0.024338 0.013910 -0.032724 0.080905 -0.069375 0.068750 -0.040352 -0.019031 0.004891 0.046919 -0.024137 0.110305 -0.038087 -0.062699 0.010515 -0.004876 0.046360 -0.022644 0.063211 0.098431 0.027467 0.070122 -0.019973 0.026772 0.051453 0.090897 -0.003645 -0.006462 0.029698 0.090644 0.015271 -0.037295 0.151347 0.060405 -0.020885 -0.068099 0.003512 0.046469 0.049567 0.068084 -0.084848 -0.008823 -0.019373 -0.021672 0.013917 0.023689 0.016225 -0.056180 -0.077931 0.080327 0.057671 -0.037260 0.015394 0.138307 0.002351 0.010594 -0.086844 -0.066490 0.191547 0.021652 0.010764 -0.044430 0.030063 0.053091 0.033365 0.007123 -0.048369 -0.066490 0.003075 -0.066063 0.014856 0.123698 0.002625 -0.020547 -0.020832 -0.046382 0.008944 0.061660 0.011326 -0.039641 -0.055118 0.008917 0.047505 -0.065043 0.054861 0.072826 -0.059825 -0.011576 -0.073457 -0.036040 0.067507 0.022442 0.018413 -0.055318 -0.001476 0.013695 0.001052 0.034216 0.039822 -0.064612 0.102819 0.063730 -0.032141 0.016585 0.022262 -0.084421 0.045674 -0.020219 -0.060011 0.035028 0.052812 0.041397 -0.027253 0.041265 0.001919 -0.045531 -0.050227 -0.005088 0.040156 -0.001664 -0.034038 0.035466 -0.040467 -0.056450 -0.051617 0.023137 0.039982 -0.031552 0.004479 -0.069800 -0.020580 0.040766 -0.046617 0.009859 0.024953 -0.017372 0.077501 -0.059381 -0.069270 -0.097226 -0.039978 0.026237 -0.046859 -0.034354 -0.001620 0.027385 0.042878 0.076235 0.018380 -0.009615 -0.071522 0.076780 0.054488 -0.060861 -0.106588 -0.016203 -0.064708 -0.059784 -0.024570 -0.059560 -0.052856 -0.086405 -0.020883 0.026684 -0.042014 -0.012958 -0.002346 0.058466 -0.129526 0.018661 -0.141853 -0.000280 0.027648 -0.124261 -0.025482 0.015117 -0.124955 0.136135 0.054001 0.097380 -0.045140 -0.136013 0.027676 -0.019676 0.133356 0.013083 -0.013540 -0.038806 0.001449 0.070548 0.006862 0.036459 -0.012150 0.014412 -0.025464 0.077153
naam 0.089729 0.026528 0.046984 -0.097642 -0.114320 0.026243 0.118705 0.017629 0.040147 -0.113872 0.050902 0.026189 -0.015246 -0.040632 0.073594 0.004533 0.022331 0.033545 -0.008727 -0.078436 0.054289 0.054507 0.004837 -0.065302 0.092231 0.046876 -0.120136 0.006715 -0.019427 0.080849 -0.019261 0.014268 0.067382 0.032600 -0.036627 0.103043 0.019851 0.027881 -0.097047 0.017032 0.023738 0.001497 0.084921 0.027519 -0.081908 0.013647 0.080497 0.063021 -0.023575 0.071750 0.008407 0.038952 -0.001828 0.010489 0.002889 0.055645 -0.094166 0.000693 0.094888 -0.063136 0.121307 0.014590 -0.018056 -0.058352 -0.117827 -0.034398 0.013835 0.044526 -0.012180 -0.032718 -0.047839 -0.052823 -0.057627 0.022000 0.038254 0.118658 0.022893 -0.007047 0.082033 -0.045843 -0.078345 -0.016958 0.012545 -0.005713 -0.018594 0.048250 0.032957 0.009096 -0.119792 -0.126804 -0.028583 -0.002004 -0.085337 -0.019896 -0.029093 -0.020566 -0.004307 0.011523 0.043085 -0.061702 0.007079 0.050043 0.016035 0.107703 -0.038138 -0.034850 0.064227 0.010582 0.069557 0.054884 -0.147561 -0.086064 -0.007851 -0.066926 -0.000409 -0.044594 0.006639 -0.006266 0.053426 0.018249 0.002949 0.010210 0.034979 -0.029507 0.088380 0.006599 0.111897 0.114121 0.042522 -0.034677 -0.010382 -0.001397 -0.107758 -0.079700 -0.100207 0.057078 -0.019962 0.100573 -0.040125 0.012231 0.030812 -0.094891 -0.050392 -0.115863 -0.200243 -0.075498 0.039943 -0.038133 -0.086402 -0.092019 -0.013280 -0.002847 -0.005162 0.007838 0.042351 0.034747 0.049200 0.000945 0.060385 -0.034619 0.023197 0.007046 0.026133 0.081896 0.056172 0.080574 -0.056437 -0.011061 -0.076946 0.002825 -0.006691 0.005952 -0.063701 -0.093087 -0.038767 0.031736 0.136727 -0.025507 -0.000233 0.090177 -0.068659 0.069692 0.064859 0.034258 0.025486 -0.032828 -0.032764 -0.007372 0.144431 0.027480 -0.031554 0.059463 -0.027028 0.007963 -0.047239 0.049629 -0.003182 0.060671 0.015448 -0.076760 -0.105121 0.002781 0.015179 -0.106364 -0.019786 0.026940 0.084861 -0.009387 0.029428 0.084387 -0.000552 0.040635 -0.097951 -0.020071 -0.001746 -0.005366 -0.093456 -0.052103 0.031036 0.038515 0.039591 0.008450 -0.076677 0.031221 -0.025553 -0.071745 -0.036940 0.049312 0.065998 0.005759 -0.070860 0.008642 0.033777 0.002660 -0.072100 -0.037827 -0.062645 -0.039598 0.023115 0.044604 0.021882 0.112491 0.010097 0.098353 0.001044 -0.016851 -0.030580 -0.083203 -0.054849 -0.039782 -0.000626 0.080343 -0.046183 0.010800 -0.039646 0.003802 -0.005911 -0.015694 0.000820 -0.027606 -0.019369 0.034991 0.037010 -0.021070 -0.022658 -0.058862 -0.081054 0.002205 0.064546 0.033961 0.038295 0.027626 0.015424 -0.069266 0.019284 -0.071950 -0.058107 -0.010316 -0.015387 0.022198 0.065555 -0.002102 0.041007 -0.066297 0.090510 0.031839 0.056229 -0.021983 -0.045368 0.025231 0.027035 0.029864 0.007128 -0.018136 -0.060621 0.016927 -0.006575 0.047525 0.037261 0.001590 0.058792 0.013095 0.061348 -0.007085 0.074999 0.000207 -0.009056 0.116669 0.069281 0.023403 0.010761 -0.006862 0.062566 0.025583 -0.011571 -0.091146 0.001476 -0.087064 -0.014435 0.029699
